<?xml version="1.0"?>
<opencv_storage>
<cascade>
  <stageType>BOOST</stageType>
  <featureType>HAAR</featureType>
  <height>20</height>
  <width>20</width>
  <stageParams>
    <boostType>GAB</boostType>
    <minHitRate>9.9900001287460327e-01</minHitRate>
    <maxFalseAlarm>5.0000000000000000e-01</maxFalseAlarm>
    <weightTrimRate>9.4999999999999996e-01</weightTrimRate>
    <maxDepth>1</maxDepth>
    <maxWeakCount>100</maxWeakCount></stageParams>
  <featureParams>
    <maxCatCount>0</maxCatCount>
    <featSize>1</featSize>
    <mode>ALL</mode></featureParams>
  <stageNum>20</stageNum>
  <stages>
    <!-- stage 0 -->
    <_>
      <maxWeakCount>14</maxWeakCount>
      <stageThreshold>-1.3506075143814087e+00</stageThreshold>
      <weakClassifiers>
        <_>
          <internalNodes>
            0 -1 253 2.8577428311109543e-02</internalNodes>
          <leafValues>
            4.3108505010604858e-01 -7.9661017656326294e-01</leafValues></_>
        <_>
          <internalNodes>
            0 -1 339 -3.3184655476361513e-03</internalNodes>
          <leafValues>
            5.8603107929229736e-01 -3.7894359230995178e-01</leafValues></_>
        <_>
          <internalNodes>
            0 -1 355 1.7254859209060669e-02</internalNodes>
          <leafValues>
            -1.8271332979202271e-01 6.7426311969757080e-01</leafValues></_>
        <_>
          <internalNodes>
            0 -1 293 -9.4085559248924255e-03</internalNodes>
          <leafValues>
            4.8535549640655518e-01 -2.9382142424583435e-01</leafValues></_>
        <_>
          <internalNodes>
            0 -1 368 -2.6697371155023575e-02</internalNodes>
          <leafValues>
            7.7477461099624634e-01 -9.6277147531509399e-02</leafValues></_>
        <_>
          <internalNodes>
            0 -1 369 2.2021500393748283e-02</internalNodes>
          <leafValues>
            -1.9108337163925171e-01 7.1278047561645508e-01</leafValues></_>
        <_>
          <internalNodes>
            0 -1 592 1.1029785964637995e-03</internalNodes>
          <leafValues>
            -3.4227418899536133e-01 3.4751099348068237e-01</leafValues></_>
        <_>
          <internalNodes>
            0 -1 529 2.1488297730684280e-02</internalNodes>
          <leafValues>
            -1.9743448495864868e-01 5.9781426191329956e-01</leafValues></_>
        <_>
          <internalNodes>
            0 -1 246 -8.9935004711151123e-02</internalNodes>
          <leafValues>
            -7.3589032888412476e-01 1.6476199030876160e-01</leafValues></_>
        <_>
          <internalNodes>
            0 -1 570 -1.1052386462688446e-01</internalNodes>
          <leafValues>
            -9.0771907567977905e-01 1.1045486479997635e-01</leafValues></_>
        <_>
          <internalNodes>
            0 -1 44 1.5929059684276581e-01</internalNodes>
          <leafValues>
            -1.7682313919067383e-01 8.4889203310012817e-01</leafValues></_>
        <_>
          <internalNodes>
            0 -1 386 -2.4260180070996284e-03</internalNodes>
          <leafValues>
            -6.7963528633117676e-01 2.0089474320411682e-01</leafValues></_>
        <_>
          <internalNodes>
            0 -1 449 2.8887681663036346e-02</internalNodes>
          <leafValues>
            -2.1904504299163818e-01 5.4608523845672607e-01</leafValues></_>
        <_>
          <internalNodes>
            0 -1 552 -6.1763479607179761e-04</internalNodes>
          <leafValues>
            4.0219751000404358e-01 -2.6671761274337769e-01</leafValues></_></weakClassifiers></_>
    <!-- stage 1 -->
    <_>
      <maxWeakCount>13</maxWeakCount>
      <stageThreshold>-9.0901333093643188e-01</stageThreshold>
      <weakClassifiers>
        <_>
          <internalNodes>
            0 -1 324 1.6011513769626617e-02</internalNodes>
          <leafValues>
            -2.9354207217693329e-02 7.4394464492797852e-01</leafValues></_>
        <_>
          <internalNodes>
            0 -1 335 -4.6977717429399490e-03</internalNodes>
          <leafValues>
            -8.7907552719116211e-01 1.7515064775943756e-01</leafValues></_>
        <_>
          <internalNodes>
            0 -1 330 6.0000717639923096e-03</internalNodes>
          <leafValues>
            1.0180285573005676e-01 -8.5992842912673950e-01</leafValues></_>
        <_>
          <internalNodes>
            0 -1 398 -6.4307185821235180e-03</internalNodes>
          <leafValues>
            3.5151445865631104e-01 -3.0935752391815186e-01</leafValues></_>
        <_>
          <internalNodes>
            0 -1 359 -5.4174102842807770e-04</internalNodes>
          <leafValues>
            3.5094714164733887e-01 -3.4651613235473633e-01</leafValues></_>
        <_>
          <internalNodes>
            0 -1 311 2.3361220955848694e-02</internalNodes>
          <leafValues>
            -2.0678125321865082e-01 5.7371765375137329e-01</leafValues></_>
        <_>
          <internalNodes>
            0 -1 601 5.6805737316608429e-02</internalNodes>
          <leafValues>
            2.1542502939701080e-01 -6.2254601716995239e-01</leafValues></_>
        <_>
          <internalNodes>
            0 -1 224 -5.3745351731777191e-02</internalNodes>
          <leafValues>
            8.2770103216171265e-01 -1.9115529954433441e-01</leafValues></_>
        <_>
          <internalNodes>
            0 -1 154 -3.3908590674400330e-02</internalNodes>
          <leafValues>
            5.4620885848999023e-01 -1.5961526334285736e-01</leafValues></_>
        <_>
          <internalNodes>
            0 -1 56 7.8863948583602905e-02</internalNodes>
          <leafValues>
            -1.6568343341350555e-01 8.0125617980957031e-01</leafValues></_>
        <_>
          <internalNodes>
            0 -1 292 -4.0591089054942131e-03</internalNodes>
          <leafValues>
            4.1017231345176697e-01 -2.5109311938285828e-01</leafValues></_>
        <_>
          <internalNodes>
            0 -1 515 1.5087560750544071e-03</internalNodes>
          <leafValues>
            1.5747527778148651e-01 -6.6142702102661133e-01</leafValues></_>
        <_>
          <internalNodes>
            0 -1 456 7.6959526631981134e-04</internalNodes>
          <leafValues>
            -2.5751152634620667e-01 3.8666099309921265e-01</leafValues></_></weakClassifiers></_>
    <!-- stage 2 -->
    <_>
      <maxWeakCount>21</maxWeakCount>
      <stageThreshold>-1.1882740259170532e+00</stageThreshold>
      <weakClassifiers>
        <_>
          <internalNodes>
            0 -1 315 -4.2644394561648369e-03</internalNodes>
          <leafValues>
            5.2581661939620972e-01 -1.5207372605800629e-01</leafValues></_>
        <_>
          <internalNodes>
            0 -1 162 5.9782095253467560e-02</internalNodes>
          <leafValues>
            1.4317925274372101e-01 -8.4153890609741211e-01</leafValues></_>
        <_>
          <internalNodes>
            0 -1 415 2.8701912611722946e-02</internalNodes>
          <leafValues>
            -1.6587756574153900e-01 6.2795305252075195e-01</leafValues></_>
        <_>
          <internalNodes>
            0 -1 384 1.8508285284042358e-03</internalNodes>
          <leafValues>
            -3.4200173616409302e-01 2.4774739146232605e-01</leafValues></_>
        <_>
          <internalNodes>
            0 -1 532 -5.7011734694242477e-02</internalNodes>
          <leafValues>
            -9.3054747581481934e-01 1.4045421779155731e-01</leafValues></_>
        <_>
          <internalNodes>
            0 -1 436 8.9340582489967346e-03</internalNodes>
          <leafValues>
            -1.5654869377613068e-01 6.8260395526885986e-01</leafValues></_>
        <_>
          <internalNodes>
            0 -1 370 -4.3509695678949356e-02</internalNodes>
          <leafValues>
            7.3399096727371216e-01 -1.4758893847465515e-01</leafValues></_>
        <_>
          <internalNodes>
            0 -1 450 -1.2570453109219670e-03</internalNodes>
          <leafValues>
            -7.5660324096679688e-01 1.6137747466564178e-01</leafValues></_>
        <_>
          <internalNodes>
            0 -1 298 -4.4056270271539688e-02</internalNodes>
          <leafValues>
            5.6585514545440674e-01 -2.2608000040054321e-01</leafValues></_>
        <_>
          <internalNodes>
            0 -1 425 -2.8177917003631592e-02</internalNodes>
          <leafValues>
            -8.5986465215682983e-01 1.4102779328823090e-01</leafValues></_>
        <_>
          <internalNodes>
            0 -1 610 -2.4708820274099708e-04</internalNodes>
          <leafValues>
            3.1043899059295654e-01 -2.7951669692993164e-01</leafValues></_>
        <_>
          <internalNodes>
            0 -1 516 1.2083293404430151e-03</internalNodes>
          <leafValues>
            -3.0714970827102661e-01 2.7743652462959290e-01</leafValues></_>
        <_>
          <internalNodes>
            0 -1 387 7.2038993239402771e-03</internalNodes>
          <leafValues>
            1.0645871609449387e-01 -8.0241793394088745e-01</leafValues></_>
        <_>
          <internalNodes>
            0 -1 322 -8.8606514036655426e-03</internalNodes>
          <leafValues>
            6.9640088081359863e-01 -1.3102465867996216e-01</leafValues></_>
        <_>
          <internalNodes>
            0 -1 395 -2.2480683401226997e-03</internalNodes>
          <leafValues>
            -8.6623787879943848e-01 1.0958701372146606e-01</leafValues></_>
        <_>
          <internalNodes>
            0 -1 108 -8.4736227989196777e-02</internalNodes>
          <leafValues>
            4.1307920217514038e-01 -2.0254941284656525e-01</leafValues></_>
        <_>
          <internalNodes>
            0 -1 318 8.1662349402904510e-03</internalNodes>
          <leafValues>
            -1.2240220606327057e-01 5.5099976062774658e-01</leafValues></_>
        <_>
          <internalNodes>
            0 -1 445 1.0168307926505804e-03</internalNodes>
          <leafValues>
            -2.3573535680770874e-01 3.2334339618682861e-01</leafValues></_>
        <_>
          <internalNodes>
            0 -1 444 -3.9431457407772541e-03</internalNodes>
          <leafValues>
            6.9186294078826904e-01 -1.5103137493133545e-01</leafValues></_>
        <_>
          <internalNodes>
            0 -1 184 2.8078025206923485e-03</internalNodes>
          <leafValues>
            1.6874913871288300e-01 -5.4505258798599243e-01</leafValues></_>
        <_>
          <internalNodes>
            0 -1 659 -8.1145286560058594e-02</internalNodes>
          <leafValues>
            -7.7533972263336182e-01 7.8766867518424988e-02</leafValues></_></weakClassifiers></_>
    <!-- stage 3 -->
    <_>
      <maxWeakCount>21</maxWeakCount>
      <stageThreshold>-9.9509090185165405e-01</stageThreshold>
      <weakClassifiers>
        <_>
          <internalNodes>
            0 -1 307 -1.1585843749344349e-02</internalNodes>
          <leafValues>
            -6.7605632543563843e-01 3.4019204974174500e-01</leafValues></_>
        <_>
          <internalNodes>
            0 -1 327 5.2748192101716995e-03</internalNodes>
          <leafValues>
            -1.8689259886741638e-01 5.4055911302566528e-01</leafValues></_>
        <_>
          <internalNodes>
            0 -1 123 8.9367479085922241e-02</internalNodes>
          <leafValues>
            8.6759626865386963e-02 -7.5950223207473755e-01</leafValues></_>
        <_>
          <internalNodes>
            0 -1 454 2.0257735159248114e-03</internalNodes>
          <leafValues>
            8.7475836277008057e-02 -7.1971553564071655e-01</leafValues></_>
        <_>
          <internalNodes>
            0 -1 433 4.6002492308616638e-03</internalNodes>
          <leafValues>
            -1.6653770208358765e-01 4.4790679216384888e-01</leafValues></_>
        <_>
          <internalNodes>
            0 -1 262 -6.5985247492790222e-02</internalNodes>
          <leafValues>
            4.9073594808578491e-01 -1.7975686490535736e-01</leafValues></_>
        <_>
          <internalNodes>
            0 -1 158 -4.1359685361385345e-02</internalNodes>
          <leafValues>
            -5.3380709886550903e-01 1.2682537734508514e-01</leafValues></_>
        <_>
          <internalNodes>
            0 -1 427 7.6053817756474018e-03</internalNodes>
          <leafValues>
            -1.8881106376647949e-01 4.0912941098213196e-01</leafValues></_>
        <_>
          <internalNodes>
            0 -1 284 -1.4595143729820848e-03</internalNodes>
          <leafValues>
            2.4869294464588165e-01 -3.0818331241607666e-01</leafValues></_>
        <_>
          <internalNodes>
            0 -1 149 -7.5910493731498718e-02</internalNodes>
          <leafValues>
            4.7313186526298523e-01 -2.2158561646938324e-01</leafValues></_>
        <_>
          <internalNodes>
            0 -1 353 3.3293604850769043e-02</internalNodes>
          <leafValues>
            -1.1628658324480057e-01 5.0113266706466675e-01</leafValues></_>
        <_>
          <internalNodes>
            0 -1 450 2.3433058522641659e-03</internalNodes>
          <leafValues>
            7.3841817677021027e-02 -8.3245742321014404e-01</leafValues></_>
        <_>
          <internalNodes>
            0 -1 65 3.1135702738538384e-04</internalNodes>
          <leafValues>
            -2.4634879827499390e-01 2.7712234854698181e-01</leafValues></_>
        <_>
          <internalNodes>
            0 -1 246 1.4200112223625183e-01</internalNodes>
          <leafValues>
            8.8183298707008362e-02 -6.7601972818374634e-01</leafValues></_>
        <_>
          <internalNodes>
            0 -1 452 -2.4990325327962637e-03</internalNodes>
          <leafValues>
            -7.1599155664443970e-01 8.9883789420127869e-02</leafValues></_>
        <_>
          <internalNodes>
            0 -1 627 7.6293072197586298e-04</internalNodes>
          <leafValues>
            -2.8231549263000488e-01 2.4065901339054108e-01</leafValues></_>
        <_>
          <internalNodes>
            0 -1 380 -1.2416944373399019e-03</internalNodes>
          <leafValues>
            2.6916134357452393e-01 -2.3510676622390747e-01</leafValues></_>
        <_>
          <internalNodes>
            0 -1 542 -4.3981202179566026e-04</internalNodes>
          <leafValues>
            2.6906171441078186e-01 -3.1559330224990845e-01</leafValues></_>
        <_>
          <internalNodes>
            0 -1 263 7.3887901380658150e-03</internalNodes>
          <leafValues>
            -1.3998222351074219e-01 4.9708288908004761e-01</leafValues></_>
        <_>
          <internalNodes>
            0 -1 228 4.9765203148126602e-03</internalNodes>
          <leafValues>
            1.1220261454582214e-01 -7.4420148134231567e-01</leafValues></_>
        <_>
          <internalNodes>
            0 -1 110 1.0250594466924667e-02</internalNodes>
          <leafValues>
            -1.4273303747177124e-01 5.0605767965316772e-01</leafValues></_></weakClassifiers></_>
    <!-- stage 4 -->
    <_>
      <maxWeakCount>30</maxWeakCount>
      <stageThreshold>-1.1060032844543457e+00</stageThreshold>
      <weakClassifiers>
        <_>
          <internalNodes>
            0 -1 374 -1.5561284497380257e-02</internalNodes>
          <leafValues>
            -6.9999998807907104e-01 3.2702702283859253e-01</leafValues></_>
        <_>
          <internalNodes>
            0 -1 163 -6.9447286427021027e-02</internalNodes>
          <leafValues>
            4.3537452816963196e-01 -1.7610333859920502e-01</leafValues></_>
        <_>
          <internalNodes>
            0 -1 475 -4.0659902151674032e-04</internalNodes>
          <leafValues>
            2.2788256406784058e-01 -3.0303809046745300e-01</leafValues></_>
        <_>
          <internalNodes>
            0 -1 125 -7.3535516858100891e-02</internalNodes>
          <leafValues>
            -6.7357432842254639e-01 1.0372921824455261e-01</leafValues></_>
        <_>
          <internalNodes>
            0 -1 356 1.5948764979839325e-02</internalNodes>
          <leafValues>
            1.0392690449953079e-01 -6.4660418033599854e-01</leafValues></_>
        <_>
          <internalNodes>
            0 -1 309 -1.3663450255990028e-02</internalNodes>
          <leafValues>
            -7.2149986028671265e-01 7.8411638736724854e-02</leafValues></_>
        <_>
          <internalNodes>
            0 -1 170 -3.2140128314495087e-03</internalNodes>
          <leafValues>
            2.4967923760414124e-01 -2.4201472103595734e-01</leafValues></_>
        <_>
          <internalNodes>
            0 -1 608 7.1685286238789558e-03</internalNodes>
          <leafValues>
            1.0257405042648315e-01 -5.7997626066207886e-01</leafValues></_>
        <_>
          <internalNodes>
            0 -1 193 3.7794426083564758e-02</internalNodes>
          <leafValues>
            -1.1129319667816162e-01 6.0084015130996704e-01</leafValues></_>
        <_>
          <internalNodes>
            0 -1 247 -1.0150518268346786e-02</internalNodes>
          <leafValues>
            -6.9323951005935669e-01 8.4648229181766510e-02</leafValues></_>
        <_>
          <internalNodes>
            0 -1 191 -8.5001140832901001e-03</internalNodes>
          <leafValues>
            4.4444426894187927e-01 -1.3943578302860260e-01</leafValues></_>
        <_>
          <internalNodes>
            0 -1 308 -2.1929914131760597e-02</internalNodes>
          <leafValues>
            -6.5247988700866699e-01 1.0661628097295761e-01</leafValues></_>
        <_>
          <internalNodes>
            0 -1 599 -1.1182785034179688e-02</internalNodes>
          <leafValues>
            5.9906363487243652e-01 -1.2058155983686447e-01</leafValues></_>
        <_>
          <internalNodes>
            0 -1 279 5.8094770647585392e-03</internalNodes>
          <leafValues>
            7.9833760857582092e-02 -9.4183188676834106e-01</leafValues></_>
        <_>
          <internalNodes>
            0 -1 33 7.9243758227676153e-04</internalNodes>
          <leafValues>
            -2.3862457275390625e-01 2.5551086664199829e-01</leafValues></_>
        <_>
          <internalNodes>
            0 -1 360 6.3832481391727924e-03</internalNodes>
          <leafValues>
            -1.2457775324583054e-01 4.4713255763053894e-01</leafValues></_>
        <_>
          <internalNodes>
            0 -1 126 -1.9872547686100006e-01</internalNodes>
          <leafValues>
            6.6704225540161133e-01 -9.0914681553840637e-02</leafValues></_>
        <_>
          <internalNodes>
            0 -1 511 -4.8552835360169411e-03</internalNodes>
          <leafValues>
            -6.7884111404418945e-01 9.3064807355403900e-02</leafValues></_>
        <_>
          <internalNodes>
            0 -1 269 5.7805769145488739e-02</internalNodes>
          <leafValues>
            -1.1619098484516144e-01 5.4180419445037842e-01</leafValues></_>
        <_>
          <internalNodes>
            0 -1 543 1.4909630408510566e-03</internalNodes>
          <leafValues>
            -1.9339424371719360e-01 2.8221181035041809e-01</leafValues></_>
        <_>
          <internalNodes>
            0 -1 373 1.0911179706454277e-02</internalNodes>
          <leafValues>
            1.0599317401647568e-01 -5.7659238576889038e-01</leafValues></_>
        <_>
          <internalNodes>
            0 -1 302 1.4048162847757339e-03</internalNodes>
          <leafValues>
            -2.0688678324222565e-01 3.0092835426330566e-01</leafValues></_>
        <_>
          <internalNodes>
            0 -1 280 -2.7209680993109941e-03</internalNodes>
          <leafValues>
            -4.8524528741836548e-01 1.1140147596597672e-01</leafValues></_>
        <_>
          <internalNodes>
            0 -1 135 -1.0311497375369072e-02</internalNodes>
          <leafValues>
            3.8206648826599121e-01 -1.4349499344825745e-01</leafValues></_>
        <_>
          <internalNodes>
            0 -1 249 -1.5313980169594288e-02</internalNodes>
          <leafValues>
            -5.7395589351654053e-01 1.2471964955329895e-01</leafValues></_>
        <_>
          <internalNodes>
            0 -1 448 -2.1965741179883480e-03</internalNodes>
          <leafValues>
            1.8455260992050171e-01 -3.0612623691558838e-01</leafValues></_>
        <_>
          <internalNodes>
            0 -1 573 -5.5466510355472565e-02</internalNodes>
          <leafValues>
            -8.8255375623703003e-01 5.6346379220485687e-02</leafValues></_>
        <_>
          <internalNodes>
            0 -1 450 -1.7367890104651451e-03</internalNodes>
          <leafValues>
            -6.8938636779785156e-01 6.5803319215774536e-02</leafValues></_>
        <_>
          <internalNodes>
            0 -1 222 -5.3036292083561420e-03</internalNodes>
          <leafValues>
            4.5091617107391357e-01 -1.3461634516716003e-01</leafValues></_>
        <_>
          <internalNodes>
            0 -1 312 5.2158907055854797e-03</internalNodes>
          <leafValues>
            -2.7623972296714783e-01 2.1316656470298767e-01</leafValues></_></weakClassifiers></_>
    <!-- stage 5 -->
    <_>
      <maxWeakCount>35</maxWeakCount>
      <stageThreshold>-1.1219261884689331e+00</stageThreshold>
      <weakClassifiers>
        <_>
          <internalNodes>
            0 -1 451 6.6690752282738686e-04</internalNodes>
          <leafValues>
            -6.3174113631248474e-02 4.6372240781784058e-01</leafValues></_>
        <_>
          <internalNodes>
            0 -1 467 3.2421166542917490e-03</internalNodes>
          <leafValues>
            -9.1530106961727142e-02 5.7237845659255981e-01</leafValues></_>
        <_>
          <internalNodes>
            0 -1 285 3.1763527542352676e-02</internalNodes>
          <leafValues>
            -1.4898908138275146e-01 4.8104485869407654e-01</leafValues></_>
        <_>
          <internalNodes>
            0 -1 331 1.2049366487190127e-03</internalNodes>
          <leafValues>
            -1.8896345794200897e-01 3.2712969183921814e-01</leafValues></_>
        <_>
          <internalNodes>
            0 -1 345 1.1155112879350781e-03</internalNodes>
          <leafValues>
            7.5100600719451904e-02 -5.6611591577529907e-01</leafValues></_>
        <_>
          <internalNodes>
            0 -1 411 3.7260524928569794e-02</internalNodes>
          <leafValues>
            9.8734810948371887e-02 -5.9319829940795898e-01</leafValues></_>
        <_>
          <internalNodes>
            0 -1 701 2.4968765210360289e-03</internalNodes>
          <leafValues>
            -1.7169021070003510e-01 3.2826203107833862e-01</leafValues></_>
        <_>
          <internalNodes>
            0 -1 322 -1.1672595515847206e-02</internalNodes>
          <leafValues>
            6.7358183860778809e-01 -9.5351412892341614e-02</leafValues></_>
        <_>
          <internalNodes>
            0 -1 203 -1.3186546042561531e-02</internalNodes>
          <leafValues>
            -6.4537763595581055e-01 1.1939645558595657e-01</leafValues></_>
        <_>
          <internalNodes>
            0 -1 143 -4.3945466168224812e-03</internalNodes>
          <leafValues>
            2.9866951704025269e-01 -1.6782736778259277e-01</leafValues></_>
        <_>
          <internalNodes>
            0 -1 27 7.5063416734337807e-03</internalNodes>
          <leafValues>
            -1.0180867463350296e-01 5.3753525018692017e-01</leafValues></_>
        <_>
          <internalNodes>
            0 -1 624 2.5274609215557575e-03</internalNodes>
          <leafValues>
            -2.1631254255771637e-01 2.2960190474987030e-01</leafValues></_>
        <_>
          <internalNodes>
            0 -1 424 -2.1209955215454102e-02</internalNodes>
          <leafValues>
            -9.5167702436447144e-01 4.6141166239976883e-02</leafValues></_>
        <_>
          <internalNodes>
            0 -1 207 -1.8368271412327886e-04</internalNodes>
          <leafValues>
            2.4876080453395844e-01 -2.1606074273586273e-01</leafValues></_>
        <_>
          <internalNodes>
            0 -1 364 -4.2132684029638767e-03</internalNodes>
          <leafValues>
            -7.5714379549026489e-01 7.5296051800251007e-02</leafValues></_>
        <_>
          <internalNodes>
            0 -1 156 -1.3601554557681084e-02</internalNodes>
          <leafValues>
            -3.9332678914070129e-01 1.4040717482566833e-01</leafValues></_>
        <_>
          <internalNodes>
            0 -1 480 5.4020006209611893e-03</internalNodes>
          <leafValues>
            -1.6597500443458557e-01 3.4256696701049805e-01</leafValues></_>
        <_>
          <internalNodes>
            0 -1 643 1.7335969023406506e-03</internalNodes>
          <leafValues>
            -2.1056844294071198e-01 2.6350408792495728e-01</leafValues></_>
        <_>
          <internalNodes>
            0 -1 179 -4.5396583154797554e-03</internalNodes>
          <leafValues>
            4.6149152517318726e-01 -1.5779371559619904e-01</leafValues></_>
        <_>
          <internalNodes>
            0 -1 600 -5.4218444973230362e-02</internalNodes>
          <leafValues>
            -6.1375164985656738e-01 9.9909096956253052e-02</leafValues></_>
        <_>
          <internalNodes>
            0 -1 395 2.0657938439399004e-03</internalNodes>
          <leafValues>
            6.8977765738964081e-02 -7.6412039995193481e-01</leafValues></_>
        <_>
          <internalNodes>
            0 -1 138 -3.4681789577007294e-02</internalNodes>
          <leafValues>
            3.9147377014160156e-01 -1.6697572171688080e-01</leafValues></_>
        <_>
          <internalNodes>
            0 -1 197 -1.7233861144632101e-03</internalNodes>
          <leafValues>
            2.6986500620841980e-01 -2.0472629368305206e-01</leafValues></_>
        <_>
          <internalNodes>
            0 -1 151 -1.0956066660583019e-02</internalNodes>
          <leafValues>
            3.9043745398521423e-01 -1.5574909746646881e-01</leafValues></_>
        <_>
          <internalNodes>
            0 -1 120 1.0184426791965961e-02</internalNodes>
          <leafValues>
            -1.1313207447528839e-01 4.7147724032402039e-01</leafValues></_>
        <_>
          <internalNodes>
            0 -1 290 -2.5484513025730848e-04</internalNodes>
          <leafValues>
            -3.3552861213684082e-01 1.5684735774993896e-01</leafValues></_>
        <_>
          <internalNodes>
            0 -1 571 -1.1550379917025566e-02</internalNodes>
          <leafValues>
            -6.4977943897247314e-01 7.4183523654937744e-02</leafValues></_>
        <_>
          <internalNodes>
            0 -1 441 4.1334494017064571e-03</internalNodes>
          <leafValues>
            -1.4548940956592560e-01 3.3949285745620728e-01</leafValues></_>
        <_>
          <internalNodes>
            0 -1 211 -2.1936643868684769e-02</internalNodes>
          <leafValues>
            3.1224453449249268e-01 -1.9639700651168823e-01</leafValues></_>
        <_>
          <internalNodes>
            0 -1 508 -5.0207376480102539e-03</internalNodes>
          <leafValues>
            4.4070473313331604e-01 -1.7582100629806519e-01</leafValues></_>
        <_>
          <internalNodes>
            0 -1 584 -5.7446728460490704e-03</internalNodes>
          <leafValues>
            3.2071265578269958e-01 -1.6202659904956818e-01</leafValues></_>
        <_>
          <internalNodes>
            0 -1 78 -1.8865567445755005e-01</internalNodes>
          <leafValues>
            5.4045015573501587e-01 -1.0133156925439835e-01</leafValues></_>
        <_>
          <internalNodes>
            0 -1 61 -7.7667050063610077e-03</internalNodes>
          <leafValues>
            3.2664829492568970e-01 -1.7066277563571930e-01</leafValues></_>
        <_>
          <internalNodes>
            0 -1 704 2.6921064127236605e-03</internalNodes>
          <leafValues>
            -6.9189459085464478e-02 6.8643260002136230e-01</leafValues></_>
        <_>
          <internalNodes>
            0 -1 329 -6.7950738593935966e-03</internalNodes>
          <leafValues>
            -9.1935169696807861e-01 7.1268595755100250e-02</leafValues></_></weakClassifiers></_>
    <!-- stage 6 -->
    <_>
      <maxWeakCount>34</maxWeakCount>
      <stageThreshold>-9.6502953767776489e-01</stageThreshold>
      <weakClassifiers>
        <_>
          <internalNodes>
            0 -1 393 1.4995166566222906e-03</internalNodes>
          <leafValues>
            -1.4144271844998002e-03 4.4904816150665283e-01</leafValues></_>
        <_>
          <internalNodes>
            0 -1 385 5.1309457048773766e-03</internalNodes>
          <leafValues>
            -1.8712018430233002e-01 3.6576625704765320e-01</leafValues></_>
        <_>
          <internalNodes>
            0 -1 660 8.2067037001252174e-03</internalNodes>
          <leafValues>
            -1.1172861605882645e-01 4.8407912254333496e-01</leafValues></_>
        <_>
          <internalNodes>
            0 -1 551 2.1152384579181671e-03</internalNodes>
          <leafValues>
            8.8171139359474182e-02 -5.0367558002471924e-01</leafValues></_>
        <_>
          <internalNodes>
            0 -1 231 -1.2253937311470509e-03</internalNodes>
          <leafValues>
            2.6214131712913513e-01 -2.0965044200420380e-01</leafValues></_>
        <_>
          <internalNodes>
            0 -1 457 -1.4724894426763058e-03</internalNodes>
          <leafValues>
            4.0278822183609009e-01 -1.3924713432788849e-01</leafValues></_>
        <_>
          <internalNodes>
            0 -1 445 1.2279631337150931e-03</internalNodes>
          <leafValues>
            -2.3277403414249420e-01 2.4815621972084045e-01</leafValues></_>
        <_>
          <internalNodes>
            0 -1 126 9.4016976654529572e-02</internalNodes>
          <leafValues>
            -1.5044809877872467e-01 3.8707530498504639e-01</leafValues></_>
        <_>
          <internalNodes>
            0 -1 122 -2.1854169666767120e-02</internalNodes>
          <leafValues>
            4.9543070793151855e-01 -1.0659532994031906e-01</leafValues></_>
        <_>
          <internalNodes>
            0 -1 400 -2.8550783172249794e-03</internalNodes>
          <leafValues>
            3.4848096966743469e-01 -1.5343235433101654e-01</leafValues></_>
        <_>
          <internalNodes>
            0 -1 440 1.2136515229940414e-02</internalNodes>
          <leafValues>
            1.0617784410715103e-01 -5.0035315752029419e-01</leafValues></_>
        <_>
          <internalNodes>
            0 -1 481 2.4990197271108627e-02</internalNodes>
          <leafValues>
            -1.0678559541702271e-01 4.9005976319313049e-01</leafValues></_>
        <_>
          <internalNodes>
            0 -1 283 -3.0293236486613750e-03</internalNodes>
          <leafValues>
            -6.7616051435470581e-01 8.0295212566852570e-02</leafValues></_>
        <_>
          <internalNodes>
            0 -1 278 3.0976306879892945e-04</internalNodes>
          <leafValues>
            -2.4362801015377045e-01 2.1387228369712830e-01</leafValues></_>
        <_>
          <internalNodes>
            0 -1 388 -6.1866370961070061e-03</internalNodes>
          <leafValues>
            -7.7999687194824219e-01 7.7229805290699005e-02</leafValues></_>
        <_>
          <internalNodes>
            0 -1 639 -1.4297219458967447e-03</internalNodes>
          <leafValues>
            2.6938942074775696e-01 -1.9054427742958069e-01</leafValues></_>
        <_>
          <internalNodes>
            0 -1 53 3.3853336935862899e-04</internalNodes>
          <leafValues>
            1.4301609992980957e-01 -3.5628330707550049e-01</leafValues></_>
        <_>
          <internalNodes>
            0 -1 28 5.4224487394094467e-03</internalNodes>
          <leafValues>
            -1.3929146528244019e-01 4.2363724112510681e-01</leafValues></_>
        <_>
          <internalNodes>
            0 -1 216 -3.9089759811758995e-03</internalNodes>
          <leafValues>
            3.0340319871902466e-01 -1.6386915743350983e-01</leafValues></_>
        <_>
          <internalNodes>
            0 -1 153 -1.1414331197738647e-01</internalNodes>
          <leafValues>
            -7.1290832757949829e-01 7.0163853466510773e-02</leafValues></_>
        <_>
          <internalNodes>
            0 -1 68 -7.2509787976741791e-02</internalNodes>
          <leafValues>
            -6.7540794610977173e-01 6.5795883536338806e-02</leafValues></_>
        <_>
          <internalNodes>
            0 -1 434 -9.0141640976071358e-04</internalNodes>
          <leafValues>
            2.0696090161800385e-01 -2.5967463850975037e-01</leafValues></_>
        <_>
          <internalNodes>
            0 -1 321 2.1678067743778229e-02</internalNodes>
          <leafValues>
            -1.2965568900108337e-01 4.6119198203086853e-01</leafValues></_>
        <_>
          <internalNodes>
            0 -1 542 9.3203398864716291e-04</internalNodes>
          <leafValues>
            1.6093276441097260e-01 -4.8063400387763977e-01</leafValues></_>
        <_>
          <internalNodes>
            0 -1 268 3.0307810753583908e-02</internalNodes>
          <leafValues>
            5.2887801080942154e-02 -8.7341231107711792e-01</leafValues></_>
        <_>
          <internalNodes>
            0 -1 342 -1.2415517121553421e-03</internalNodes>
          <leafValues>
            -6.6814857721328735e-01 6.3691169023513794e-02</leafValues></_>
        <_>
          <internalNodes>
            0 -1 647 1.3593105599284172e-02</internalNodes>
          <leafValues>
            -1.2746360898017883e-01 4.2852979898452759e-01</leafValues></_>
        <_>
          <internalNodes>
            0 -1 306 -3.9136130362749100e-04</internalNodes>
          <leafValues>
            2.4778454005718231e-01 -1.9141438603401184e-01</leafValues></_>
        <_>
          <internalNodes>
            0 -1 696 6.8325111642479897e-03</internalNodes>
          <leafValues>
            -1.3704596459865570e-01 3.8667964935302734e-01</leafValues></_>
        <_>
          <internalNodes>
            0 -1 226 3.7462729960680008e-04</internalNodes>
          <leafValues>
            -1.8629802763462067e-01 2.4129533767700195e-01</leafValues></_>
        <_>
          <internalNodes>
            0 -1 227 3.3573603723198175e-03</internalNodes>
          <leafValues>
            7.4722655117511749e-02 -6.5974426269531250e-01</leafValues></_>
        <_>
          <internalNodes>
            0 -1 502 1.2767491862177849e-03</internalNodes>
          <leafValues>
            -1.4588718116283417e-01 3.5606843233108521e-01</leafValues></_>
        <_>
          <internalNodes>
            0 -1 605 -4.8033591359853745e-02</internalNodes>
          <leafValues>
            -7.9334729909896851e-01 7.4100360274314880e-02</leafValues></_>
        <_>
          <internalNodes>
            0 -1 127 -1.9686743617057800e-02</internalNodes>
          <leafValues>
            -5.0802266597747803e-01 1.0434330999851227e-01</leafValues></_></weakClassifiers></_>
    <!-- stage 7 -->
    <_>
      <maxWeakCount>35</maxWeakCount>
      <stageThreshold>-8.0367392301559448e-01</stageThreshold>
      <weakClassifiers>
        <_>
          <internalNodes>
            0 -1 538 -1.1136582121253014e-02</internalNodes>
          <leafValues>
            -5.4687500000000000e-01 3.1929346919059753e-01</leafValues></_>
        <_>
          <internalNodes>
            0 -1 465 -3.6818766966462135e-03</internalNodes>
          <leafValues>
            5.0036484003067017e-01 -8.0331824719905853e-02</leafValues></_>
        <_>
          <internalNodes>
            0 -1 136 -3.4592714160680771e-02</internalNodes>
          <leafValues>
            3.0121594667434692e-01 -2.0060752332210541e-01</leafValues></_>
        <_>
          <internalNodes>
            0 -1 346 9.6712065860629082e-03</internalNodes>
          <leafValues>
            -2.3038072884082794e-01 2.5527209043502808e-01</leafValues></_>
        <_>
          <internalNodes>
            0 -1 595 -3.1109261326491833e-03</internalNodes>
          <leafValues>
            -6.1988621950149536e-01 8.1878297030925751e-02</leafValues></_>
        <_>
          <internalNodes>
            0 -1 64 -1.1381469666957855e-01</internalNodes>
          <leafValues>
            3.1933975219726562e-01 -1.5698163211345673e-01</leafValues></_>
        <_>
          <internalNodes>
            0 -1 382 -1.8100682646036148e-02</internalNodes>
          <leafValues>
            7.5014358758926392e-01 -9.6016570925712585e-02</leafValues></_>
        <_>
          <internalNodes>
            0 -1 366 -1.4834906905889511e-02</internalNodes>
          <leafValues>
            -6.6934198141098022e-01 8.8780336081981659e-02</leafValues></_>
        <_>
          <internalNodes>
            0 -1 255 -2.1994961425662041e-03</internalNodes>
          <leafValues>
            -5.9480965137481689e-01 5.6840851902961731e-02</leafValues></_>
        <_>
          <internalNodes>
            0 -1 562 4.3366011232137680e-03</internalNodes>
          <leafValues>
            -6.9681748747825623e-02 6.4220368862152100e-01</leafValues></_>
        <_>
          <internalNodes>
            0 -1 618 -3.6754569737240672e-04</internalNodes>
          <leafValues>
            2.6449942588806152e-01 -1.7319107055664062e-01</leafValues></_>
        <_>
          <internalNodes>
            0 -1 649 -3.3237701281905174e-03</internalNodes>
          <leafValues>
            -3.8251718878746033e-01 1.2992873787879944e-01</leafValues></_>
        <_>
          <internalNodes>
            0 -1 24 -1.3312405347824097e-01</internalNodes>
          <leafValues>
            -8.6133670806884766e-01 4.8482920974493027e-02</leafValues></_>
        <_>
          <internalNodes>
            0 -1 24 1.8451264500617981e-01</internalNodes>
          <leafValues>
            5.3477361798286438e-02 -6.5257811546325684e-01</leafValues></_>
        <_>
          <internalNodes>
            0 -1 395 2.3698292206972837e-03</internalNodes>
          <leafValues>
            5.0155337899923325e-02 -7.7065813541412354e-01</leafValues></_>
        <_>
          <internalNodes>
            0 -1 137 4.0144789963960648e-03</internalNodes>
          <leafValues>
            -2.1505768597126007e-01 1.9893799722194672e-01</leafValues></_>
        <_>
          <internalNodes>
            0 -1 96 -1.6283667087554932e-01</internalNodes>
          <leafValues>
            7.3442590236663818e-01 -6.8683780729770660e-02</leafValues></_>
        <_>
          <internalNodes>
            0 -1 653 4.5148161007091403e-04</internalNodes>
          <leafValues>
            -1.9485950469970703e-01 2.0964612066745758e-01</leafValues></_>
        <_>
          <internalNodes>
            0 -1 286 6.2893368303775787e-03</internalNodes>
          <leafValues>
            8.2058869302272797e-02 -4.9733871221542358e-01</leafValues></_>
        <_>
          <internalNodes>
            0 -1 500 -1.3758391141891479e-02</internalNodes>
          <leafValues>
            3.1882005929946899e-01 -1.5292705595493317e-01</leafValues></_>
        <_>
          <internalNodes>
            0 -1 504 -5.0470368005335331e-03</internalNodes>
          <leafValues>
            4.5869508385658264e-01 -9.6884325146675110e-02</leafValues></_>
        <_>
          <internalNodes>
            0 -1 489 2.5259887799620628e-02</internalNodes>
          <leafValues>
            7.6095327734947205e-02 -7.4619638919830322e-01</leafValues></_>
        <_>
          <internalNodes>
            0 -1 164 -6.4885318279266357e-02</internalNodes>
          <leafValues>
            -5.1580017805099487e-01 7.6668374240398407e-02</leafValues></_>
        <_>
          <internalNodes>
            0 -1 55 -3.8334238529205322e-01</internalNodes>
          <leafValues>
            7.4168097972869873e-01 -7.3765054345130920e-02</leafValues></_>
        <_>
          <internalNodes>
            0 -1 523 1.0041145980358124e-01</internalNodes>
          <leafValues>
            6.1550907790660858e-02 -1.</leafValues></_>
        <_>
          <internalNodes>
            0 -1 238 -3.5326920449733734e-02</internalNodes>
          <leafValues>
            6.7618340253829956e-01 -8.4370002150535583e-02</leafValues></_>
        <_>
          <internalNodes>
            0 -1 430 -3.6687930114567280e-03</internalNodes>
          <leafValues>
            2.2862020134925842e-01 -1.9186478853225708e-01</leafValues></_>
        <_>
          <internalNodes>
            0 -1 640 8.2965120673179626e-03</internalNodes>
          <leafValues>
            -1.6348347067832947e-01 3.3287328481674194e-01</leafValues></_>
        <_>
          <internalNodes>
            0 -1 614 -1.1330697452649474e-03</internalNodes>
          <leafValues>
            1.8496845662593842e-01 -2.7140584588050842e-01</leafValues></_>
        <_>
          <internalNodes>
            0 -1 673 -6.5403862390667200e-04</internalNodes>
          <leafValues>
            -3.1480234861373901e-01 1.3830091059207916e-01</leafValues></_>
        <_>
          <internalNodes>
            0 -1 676 -7.5588142499327660e-03</internalNodes>
          <leafValues>
            3.9952483773231506e-01 -1.0925330966711044e-01</leafValues></_>
        <_>
          <internalNodes>
            0 -1 235 -6.0389716178178787e-02</internalNodes>
          <leafValues>
            3.2938435673713684e-01 -1.7770904302597046e-01</leafValues></_>
        <_>
          <internalNodes>
            0 -1 699 -6.6803512163460255e-04</internalNodes>
          <leafValues>
            -2.6218268275260925e-01 1.5461525321006775e-01</leafValues></_>
        <_>
          <internalNodes>
            0 -1 9 3.6505386233329773e-02</internalNodes>
          <leafValues>
            -7.8888706862926483e-02 5.3745102882385254e-01</leafValues></_>
        <_>
          <internalNodes>
            0 -1 405 -3.1194863840937614e-03</internalNodes>
          <leafValues>
            3.5268402099609375e-01 -1.1043252795934677e-01</leafValues></_></weakClassifiers></_>
    <!-- stage 8 -->
    <_>
      <maxWeakCount>39</maxWeakCount>
      <stageThreshold>-1.0015608072280884e+00</stageThreshold>
      <weakClassifiers>
        <_>
          <internalNodes>
            0 -1 486 1.5338661149144173e-02</internalNodes>
          <leafValues>
            2.9790025949478149e-01 -7.1052628755569458e-01</leafValues></_>
        <_>
          <internalNodes>
            0 -1 377 -7.0284545654430985e-04</internalNodes>
          <leafValues>
            3.2525414228439331e-01 -1.5885666012763977e-01</leafValues></_>
        <_>
          <internalNodes>
            0 -1 641 -5.0154654309153557e-04</internalNodes>
          <leafValues>
            2.4245157837867737e-01 -2.2433832287788391e-01</leafValues></_>
        <_>
          <internalNodes>
            0 -1 447 1.1233506957069039e-03</internalNodes>
          <leafValues>
            -2.3986335098743439e-01 2.1480490267276764e-01</leafValues></_>
        <_>
          <internalNodes>
            0 -1 12 1.1893297731876373e-01</internalNodes>
          <leafValues>
            -1.5346683561801910e-01 4.4544449448585510e-01</leafValues></_>
        <_>
          <internalNodes>
            0 -1 487 -1.1703076597768813e-04</internalNodes>
          <leafValues>
            2.2569411993026733e-01 -2.0322030782699585e-01</leafValues></_>
        <_>
          <internalNodes>
            0 -1 607 -4.8527744365856051e-04</internalNodes>
          <leafValues>
            2.3218880593776703e-01 -2.2193109989166260e-01</leafValues></_>
        <_>
          <internalNodes>
            0 -1 349 -1.2898005545139313e-02</internalNodes>
          <leafValues>
            6.4465397596359253e-01 -5.3138252347707748e-02</leafValues></_>
        <_>
          <internalNodes>
            0 -1 401 4.1215112432837486e-03</internalNodes>
          <leafValues>
            -1.3725921511650085e-01 3.8688576221466064e-01</leafValues></_>
        <_>
          <internalNodes>
            0 -1 712 -5.9183419216424227e-04</internalNodes>
          <leafValues>
            -3.0685397982597351e-01 1.6816939413547516e-01</leafValues></_>
        <_>
          <internalNodes>
            0 -1 390 3.8747461512684822e-03</internalNodes>
          <leafValues>
            -1.3599728047847748e-01 3.9955508708953857e-01</leafValues></_>
        <_>
          <internalNodes>
            0 -1 305 -8.8385697454214096e-03</internalNodes>
          <leafValues>
            -5.6275779008865356e-01 8.9285008609294891e-02</leafValues></_>
        <_>
          <internalNodes>
            0 -1 48 -3.3278220798820257e-03</internalNodes>
          <leafValues>
            5.7084822654724121e-01 -8.6489111185073853e-02</leafValues></_>
        <_>
          <internalNodes>
            0 -1 7 -9.6813921118155122e-05</internalNodes>
          <leafValues>
            -2.6828318834304810e-01 1.7482295632362366e-01</leafValues></_>
        <_>
          <internalNodes>
            0 -1 219 -6.9338828325271606e-03</internalNodes>
          <leafValues>
            5.4533463716506958e-01 -7.2847813367843628e-02</leafValues></_>
        <_>
          <internalNodes>
            0 -1 442 1.1635698378086090e-02</internalNodes>
          <leafValues>
            -8.5532918572425842e-02 5.5697602033615112e-01</leafValues></_>
        <_>
          <internalNodes>
            0 -1 558 3.0560560990124941e-03</internalNodes>
          <leafValues>
            7.1663267910480499e-02 -7.0721054077148438e-01</leafValues></_>
        <_>
          <internalNodes>
            0 -1 279 -2.3747135419398546e-03</internalNodes>
          <leafValues>
            -6.2062823772430420e-01 6.6722244024276733e-02</leafValues></_>
        <_>
          <internalNodes>
            0 -1 81 -1.1941460892558098e-02</internalNodes>
          <leafValues>
            2.6751971244812012e-01 -1.7414239048957825e-01</leafValues></_>
        <_>
          <internalNodes>
            0 -1 138 3.0302666127681732e-02</internalNodes>
          <leafValues>
            -8.3195485174655914e-02 6.1781227588653564e-01</leafValues></_>
        <_>
          <internalNodes>
            0 -1 332 1.2722848914563656e-03</internalNodes>
          <leafValues>
            -2.5474330782890320e-01 2.0080107450485229e-01</leafValues></_>
        <_>
          <internalNodes>
            0 -1 421 1.5080355107784271e-02</internalNodes>
          <leafValues>
            7.9184472560882568e-02 -6.5636843442916870e-01</leafValues></_>
        <_>
          <internalNodes>
            0 -1 202 -1.4259673189371824e-03</internalNodes>
          <leafValues>
            2.5979182124137878e-01 -1.8430805206298828e-01</leafValues></_>
        <_>
          <internalNodes>
            0 -1 280 3.2902879174798727e-03</internalNodes>
          <leafValues>
            1.0578082501888275e-01 -4.4292089343070984e-01</leafValues></_>
        <_>
          <internalNodes>
            0 -1 714 -3.3604297786951065e-03</internalNodes>
          <leafValues>
            3.9882892370223999e-01 -1.2103389203548431e-01</leafValues></_>
        <_>
          <internalNodes>
            0 -1 668 9.5186231192201376e-04</internalNodes>
          <leafValues>
            -1.7670899629592896e-01 2.5016924738883972e-01</leafValues></_>
        <_>
          <internalNodes>
            0 -1 652 7.7821058221161366e-04</internalNodes>
          <leafValues>
            -1.8834608793258667e-01 2.3184733092784882e-01</leafValues></_>
        <_>
          <internalNodes>
            0 -1 236 2.4042750010266900e-04</internalNodes>
          <leafValues>
            1.5564270317554474e-01 -2.8481018543243408e-01</leafValues></_>
        <_>
          <internalNodes>
            0 -1 57 9.6965029835700989e-02</internalNodes>
          <leafValues>
            -1.0284513235092163e-01 5.1267898082733154e-01</leafValues></_>
        <_>
          <internalNodes>
            0 -1 40 4.7562820836901665e-03</internalNodes>
          <leafValues>
            -9.8439112305641174e-02 4.3996548652648926e-01</leafValues></_>
        <_>
          <internalNodes>
            0 -1 79 -2.8970101848244667e-03</internalNodes>
          <leafValues>
            4.9339491128921509e-01 -9.0936049818992615e-02</leafValues></_>
        <_>
          <internalNodes>
            0 -1 544 -1.1103724827989936e-03</internalNodes>
          <leafValues>
            2.0555974543094635e-01 -2.1189315617084503e-01</leafValues></_>
        <_>
          <internalNodes>
            0 -1 478 -7.7792629599571228e-04</internalNodes>
          <leafValues>
            2.0963193476200104e-01 -2.3560820519924164e-01</leafValues></_>
        <_>
          <internalNodes>
            0 -1 650 6.1369072645902634e-03</internalNodes>
          <leafValues>
            5.8154541999101639e-02 -8.1947708129882812e-01</leafValues></_>
        <_>
          <internalNodes>
            0 -1 577 4.9948983360081911e-05</internalNodes>
          <leafValues>
            -2.5432190299034119e-01 1.8178103864192963e-01</leafValues></_>
        <_>
          <internalNodes>
            0 -1 328 2.1244436502456665e-02</internalNodes>
          <leafValues>
            -9.5909290015697479e-02 4.9031692743301392e-01</leafValues></_>
        <_>
          <internalNodes>
            0 -1 474 -2.7977498248219490e-03</internalNodes>
          <leafValues>
            2.9984620213508606e-01 -1.4722733199596405e-01</leafValues></_>
        <_>
          <internalNodes>
            0 -1 709 1.9428901374340057e-02</internalNodes>
          <leafValues>
            -7.0710718631744385e-02 6.5570580959320068e-01</leafValues></_>
        <_>
          <internalNodes>
            0 -1 314 -8.9995041489601135e-03</internalNodes>
          <leafValues>
            2.3990100622177124e-01 -1.9298096001148224e-01</leafValues></_></weakClassifiers></_>
    <!-- stage 9 -->
    <_>
      <maxWeakCount>48</maxWeakCount>
      <stageThreshold>-9.5679318904876709e-01</stageThreshold>
      <weakClassifiers>
        <_>
          <internalNodes>
            0 -1 441 4.9713533371686935e-03</internalNodes>
          <leafValues>
            1.0223048180341721e-01 5.5343508720397949e-01</leafValues></_>
        <_>
          <internalNodes>
            0 -1 205 -1.9699479453265667e-03</internalNodes>
          <leafValues>
            2.8866839408874512e-01 -1.7399144172668457e-01</leafValues></_>
        <_>
          <internalNodes>
            0 -1 412 -2.6072193868458271e-03</internalNodes>
          <leafValues>
            3.7732303142547607e-01 -1.2662801146507263e-01</leafValues></_>
        <_>
          <internalNodes>
            0 -1 190 -2.9264930635690689e-03</internalNodes>
          <leafValues>
            2.3137910664081573e-01 -2.2149333357810974e-01</leafValues></_>
        <_>
          <internalNodes>
            0 -1 720 3.8790605030953884e-03</internalNodes>
          <leafValues>
            1.1808630079030991e-01 -4.5403084158897400e-01</leafValues></_>
        <_>
          <internalNodes>
            0 -1 393 9.0559432283043861e-04</internalNodes>
          <leafValues>
            -2.5122442841529846e-01 1.9514563679695129e-01</leafValues></_>
        <_>
          <internalNodes>
            0 -1 260 -8.7168011814355850e-03</internalNodes>
          <leafValues>
            -5.0167953968048096e-01 6.7318379878997803e-02</leafValues></_>
        <_>
          <internalNodes>
            0 -1 105 7.2531159967184067e-03</internalNodes>
          <leafValues>
            -6.3422828912734985e-02 5.9607768058776855e-01</leafValues></_>
        <_>
          <internalNodes>
            0 -1 192 -1.2915702536702156e-02</internalNodes>
          <leafValues>
            4.8888325691223145e-01 -7.9863764345645905e-02</leafValues></_>
        <_>
          <internalNodes>
            0 -1 181 2.6338405441492796e-03</internalNodes>
          <leafValues>
            -2.0561243593692780e-01 1.9629958271980286e-01</leafValues></_>
        <_>
          <internalNodes>
            0 -1 178 -5.2428008057177067e-03</internalNodes>
          <leafValues>
            3.9567634463310242e-01 -1.3524417579174042e-01</leafValues></_>
        <_>
          <internalNodes>
            0 -1 513 -1.6382384346798062e-03</internalNodes>
          <leafValues>
            -5.5106759071350098e-01 1.0446237772703171e-01</leafValues></_>
        <_>
          <internalNodes>
            0 -1 310 2.5776203721761703e-02</internalNodes>
          <leafValues>
            4.7332860529422760e-02 -6.7266362905502319e-01</leafValues></_>
        <_>
          <internalNodes>
            0 -1 589 -3.1538985203951597e-03</internalNodes>
          <leafValues>
            2.5565248727798462e-01 -1.7291405797004700e-01</leafValues></_>
        <_>
          <internalNodes>
            0 -1 240 3.8788270205259323e-02</internalNodes>
          <leafValues>
            3.8267407566308975e-02 -8.9634460210800171e-01</leafValues></_>
        <_>
          <internalNodes>
            0 -1 553 1.0295219253748655e-03</internalNodes>
          <leafValues>
            -2.3542541265487671e-01 1.5813805162906647e-01</leafValues></_>
        <_>
          <internalNodes>
            0 -1 646 2.7918592095375061e-03</internalNodes>
          <leafValues>
            -1.5222860872745514e-01 2.7865916490554810e-01</leafValues></_>
        <_>
          <internalNodes>
            0 -1 454 -1.0273150401189923e-03</internalNodes>
          <leafValues>
            -4.6911105513572693e-01 8.5701309144496918e-02</leafValues></_>
        <_>
          <internalNodes>
            0 -1 326 -1.1756561696529388e-02</internalNodes>
          <leafValues>
            -7.7067238092422485e-01 4.2537357658147812e-02</leafValues></_>
        <_>
          <internalNodes>
            0 -1 541 4.8634973354637623e-03</internalNodes>
          <leafValues>
            -1.2556244432926178e-01 3.2064113020896912e-01</leafValues></_>
        <_>
          <internalNodes>
            0 -1 161 3.1705409288406372e-02</internalNodes>
          <leafValues>
            5.6350197643041611e-02 -7.7229666709899902e-01</leafValues></_>
        <_>
          <internalNodes>
            0 -1 213 6.4705254044383764e-04</internalNodes>
          <leafValues>
            -1.8494156002998352e-01 2.1974545717239380e-01</leafValues></_>
        <_>
          <internalNodes>
            0 -1 223 -2.4228184483945370e-03</internalNodes>
          <leafValues>
            2.9820844531059265e-01 -1.2527325749397278e-01</leafValues></_>
        <_>
          <internalNodes>
            0 -1 319 1.2486026622354984e-02</internalNodes>
          <leafValues>
            -1.0669189691543579e-01 4.0755122900009155e-01</leafValues></_>
        <_>
          <internalNodes>
            0 -1 204 -2.4217717349529266e-02</internalNodes>
          <leafValues>
            -6.2991231679916382e-01 6.7626200616359711e-02</leafValues></_>
        <_>
          <internalNodes>
            0 -1 185 2.5023469701409340e-02</internalNodes>
          <leafValues>
            -1.2965725362300873e-01 3.1690499186515808e-01</leafValues></_>
        <_>
          <internalNodes>
            0 -1 225 -4.2796432971954346e-02</internalNodes>
          <leafValues>
            2.3665484786033630e-01 -1.9448465108871460e-01</leafValues></_>
        <_>
          <internalNodes>
            0 -1 267 -5.5727675557136536e-02</internalNodes>
          <leafValues>
            8.7061059474945068e-01 -4.3276794254779816e-02</leafValues></_>
        <_>
          <internalNodes>
            0 -1 609 -2.5995266623795033e-03</internalNodes>
          <leafValues>
            2.6575928926467896e-01 -1.3870750367641449e-01</leafValues></_>
        <_>
          <internalNodes>
            0 -1 471 9.7681097686290741e-03</internalNodes>
          <leafValues>
            -1.5984047949314117e-01 2.6844936609268188e-01</leafValues></_>
        <_>
          <internalNodes>
            0 -1 111 -1.1174187809228897e-01</internalNodes>
          <leafValues>
            2.8866198658943176e-01 -1.8391560018062592e-01</leafValues></_>
        <_>
          <internalNodes>
            0 -1 564 -2.9019359499216080e-02</internalNodes>
          <leafValues>
            5.4579842090606689e-01 -6.6873461008071899e-02</leafValues></_>
        <_>
          <internalNodes>
            0 -1 498 -1.5733256936073303e-02</internalNodes>
          <leafValues>
            6.0892987251281738e-01 -5.9180378913879395e-02</leafValues></_>
        <_>
          <internalNodes>
            0 -1 82 2.0061724353581667e-03</internalNodes>
          <leafValues>
            1.0594085603952408e-01 -4.0897405147552490e-01</leafValues></_>
        <_>
          <internalNodes>
            0 -1 47 -1.8333878368139267e-02</internalNodes>
          <leafValues>
            -5.4809987545013428e-01 7.8066386282444000e-02</leafValues></_>
        <_>
          <internalNodes>
            0 -1 707 -8.9686075225472450e-03</internalNodes>
          <leafValues>
            3.7586134672164917e-01 -1.2074323743581772e-01</leafValues></_>
        <_>
          <internalNodes>
            0 -1 693 -3.2227477640844882e-04</internalNodes>
          <leafValues>
            -2.9115074872970581e-01 1.4055007696151733e-01</leafValues></_>
        <_>
          <internalNodes>
            0 -1 289 -2.8745916206389666e-03</internalNodes>
          <leafValues>
            2.2960439324378967e-01 -1.7749749124050140e-01</leafValues></_>
        <_>
          <internalNodes>
            0 -1 455 1.9034474389627576e-03</internalNodes>
          <leafValues>
            6.3405528664588928e-02 -6.6888773441314697e-01</leafValues></_>
        <_>
          <internalNodes>
            0 -1 638 -1.9025910645723343e-02</internalNodes>
          <leafValues>
            -5.8727896213531494e-01 6.2416352331638336e-02</leafValues></_>
        <_>
          <internalNodes>
            0 -1 19 -2.0751638803631067e-03</internalNodes>
          <leafValues>
            4.1697767376899719e-01 -1.0106977820396423e-01</leafValues></_>
        <_>
          <internalNodes>
            0 -1 628 -5.8685410767793655e-03</internalNodes>
          <leafValues>
            3.4971737861633301e-01 -1.0989002138376236e-01</leafValues></_>
        <_>
          <internalNodes>
            0 -1 547 5.1034375792369246e-04</internalNodes>
          <leafValues>
            -1.5168456733226776e-01 2.6761290431022644e-01</leafValues></_>
        <_>
          <internalNodes>
            0 -1 612 1.3614145107567310e-02</internalNodes>
          <leafValues>
            8.1366255879402161e-02 -5.5841141939163208e-01</leafValues></_>
        <_>
          <internalNodes>
            0 -1 14 4.0333271026611328e-03</internalNodes>
          <leafValues>
            -1.6381682455539703e-01 2.6203227043151855e-01</leafValues></_>
        <_>
          <internalNodes>
            0 -1 165 1.9253434147685766e-03</internalNodes>
          <leafValues>
            -2.0931702852249146e-01 2.0522516965866089e-01</leafValues></_>
        <_>
          <internalNodes>
            0 -1 258 -4.3001162703149021e-04</internalNodes>
          <leafValues>
            2.0731930434703827e-01 -2.1421018242835999e-01</leafValues></_>
        <_>
          <internalNodes>
            0 -1 50 -4.3792598880827427e-03</internalNodes>
          <leafValues>
            4.8981648683547974e-01 -8.6736172437667847e-02</leafValues></_></weakClassifiers></_>
    <!-- stage 10 -->
    <_>
      <maxWeakCount>44</maxWeakCount>
      <stageThreshold>-9.4865721464157104e-01</stageThreshold>
      <weakClassifiers>
        <_>
          <internalNodes>
            0 -1 229 7.9365505371242762e-04</internalNodes>
          <leafValues>
            3.4495830535888672e-01 -1.9572953879833221e-01</leafValues></_>
        <_>
          <internalNodes>
            0 -1 295 3.1375847756862640e-02</internalNodes>
          <leafValues>
            -1.0908360034227371e-01 4.4603177905082703e-01</leafValues></_>
        <_>
          <internalNodes>
            0 -1 296 1.3727513141930103e-03</internalNodes>
          <leafValues>
            -9.9029324948787689e-02 4.1297039389610291e-01</leafValues></_>
        <_>
          <internalNodes>
            0 -1 559 -3.4222383983433247e-03</internalNodes>
          <leafValues>
            4.2822819948196411e-01 -1.0386397689580917e-01</leafValues></_>
        <_>
          <internalNodes>
            0 -1 403 6.0026636347174644e-03</internalNodes>
          <leafValues>
            -1.7623741924762726e-01 3.0420276522636414e-01</leafValues></_>
        <_>
          <internalNodes>
            0 -1 234 1.2364704161882401e-02</internalNodes>
          <leafValues>
            6.6715441644191742e-02 -6.4101588726043701e-01</leafValues></_>
        <_>
          <internalNodes>
            0 -1 401 -4.0612164884805679e-03</internalNodes>
          <leafValues>
            3.8031339645385742e-01 -1.0180228948593140e-01</leafValues></_>
        <_>
          <internalNodes>
            0 -1 338 -2.1594068966805935e-03</internalNodes>
          <leafValues>
            2.6454538106918335e-01 -1.3884668052196503e-01</leafValues></_>
        <_>
          <internalNodes>
            0 -1 38 -5.1184423267841339e-02</internalNodes>
          <leafValues>
            6.5106362104415894e-01 -7.6163664460182190e-02</leafValues></_>
        <_>
          <internalNodes>
            0 -1 588 -9.4462378183379769e-04</internalNodes>
          <leafValues>
            3.2909870147705078e-01 -1.0679253935813904e-01</leafValues></_>
        <_>
          <internalNodes>
            0 -1 718 8.9864700566977262e-04</internalNodes>
          <leafValues>
            1.2533637881278992e-01 -3.5139846801757812e-01</leafValues></_>
        <_>
          <internalNodes>
            0 -1 708 -3.3439317485317588e-04</internalNodes>
          <leafValues>
            -2.7101895213127136e-01 1.3158638775348663e-01</leafValues></_>
        <_>
          <internalNodes>
            0 -1 7 -4.6686269342899323e-04</internalNodes>
          <leafValues>
            -3.4264042973518372e-01 1.2181536108255386e-01</leafValues></_>
        <_>
          <internalNodes>
            0 -1 499 3.4600920975208282e-02</internalNodes>
          <leafValues>
            -5.6071866303682327e-02 7.1613025665283203e-01</leafValues></_>
        <_>
          <internalNodes>
            0 -1 681 2.3805890232324600e-03</internalNodes>
          <leafValues>
            -1.4452211558818817e-01 2.5407037138938904e-01</leafValues></_>
        <_>
          <internalNodes>
            0 -1 713 -1.5950116794556379e-03</internalNodes>
          <leafValues>
            -3.3105719089508057e-01 1.4454847574234009e-01</leafValues></_>
        <_>
          <internalNodes>
            0 -1 407 4.9145873636007309e-03</internalNodes>
          <leafValues>
            -9.8211683332920074e-02 4.6791824698448181e-01</leafValues></_>
        <_>
          <internalNodes>
            0 -1 472 -7.2383210062980652e-03</internalNodes>
          <leafValues>
            3.4013760089874268e-01 -1.0367196053266525e-01</leafValues></_>
        <_>
          <internalNodes>
            0 -1 526 3.4234176855534315e-03</internalNodes>
          <leafValues>
            -1.0397400707006454e-01 4.0631464123725891e-01</leafValues></_>
        <_>
          <internalNodes>
            0 -1 705 -1.0301649570465088e-02</internalNodes>
          <leafValues>
            4.4752579927444458e-01 -8.2495279610157013e-02</leafValues></_>
        <_>
          <internalNodes>
            0 -1 706 5.5345664732158184e-03</internalNodes>
          <leafValues>
            -1.0084573179483414e-01 3.7853094935417175e-01</leafValues></_>
        <_>
          <internalNodes>
            0 -1 688 -7.1967684198170900e-04</internalNodes>
          <leafValues>
            -3.2153639197349548e-01 1.3330642879009247e-01</leafValues></_>
        <_>
          <internalNodes>
            0 -1 615 6.9784417748451233e-02</internalNodes>
          <leafValues>
            7.4022196233272552e-02 -5.5302923917770386e-01</leafValues></_>
        <_>
          <internalNodes>
            0 -1 537 -5.5070864036679268e-03</internalNodes>
          <leafValues>
            -3.0948662757873535e-01 1.3951990008354187e-01</leafValues></_>
        <_>
          <internalNodes>
            0 -1 254 -4.6246597776189446e-04</internalNodes>
          <leafValues>
            1.9665127992630005e-01 -2.0355892181396484e-01</leafValues></_>
        <_>
          <internalNodes>
            0 -1 596 -3.5741962492465973e-03</internalNodes>
          <leafValues>
            -5.1842701435089111e-01 8.1679418683052063e-02</leafValues></_>
        <_>
          <internalNodes>
            0 -1 80 7.2414905298501253e-04</internalNodes>
          <leafValues>
            -1.9445997476577759e-01 2.0793722569942474e-01</leafValues></_>
        <_>
          <internalNodes>
            0 -1 180 -9.5644164830446243e-03</internalNodes>
          <leafValues>
            4.3829342722892761e-01 -1.1411152034997940e-01</leafValues></_>
        <_>
          <internalNodes>
            0 -1 275 -3.2166121527552605e-03</internalNodes>
          <leafValues>
            -4.7361844778060913e-01 1.0528254508972168e-01</leafValues></_>
        <_>
          <internalNodes>
            0 -1 43 1.1986680328845978e-02</internalNodes>
          <leafValues>
            -1.1267991364002228e-01 3.8410592079162598e-01</leafValues></_>
        <_>
          <internalNodes>
            0 -1 51 1.0851651430130005e-02</internalNodes>
          <leafValues>
            7.7128700911998749e-02 -6.1439579725265503e-01</leafValues></_>
        <_>
          <internalNodes>
            0 -1 453 -1.8616042798385024e-03</internalNodes>
          <leafValues>
            2.1533729135990143e-01 -1.9757452607154846e-01</leafValues></_>
        <_>
          <internalNodes>
            0 -1 435 3.6326162517070770e-03</internalNodes>
          <leafValues>
            2.6101443171501160e-01 -1.4631487429141998e-01</leafValues></_>
        <_>
          <internalNodes>
            0 -1 282 -9.3493580818176270e-02</internalNodes>
          <leafValues>
            2.8773164749145508e-01 -1.4742296934127808e-01</leafValues></_>
        <_>
          <internalNodes>
            0 -1 485 2.9822648502886295e-04</internalNodes>
          <leafValues>
            -1.8775400519371033e-01 2.2330497205257416e-01</leafValues></_>
        <_>
          <internalNodes>
            0 -1 316 -1.1020362377166748e-02</internalNodes>
          <leafValues>
            -6.0602313280105591e-01 6.5106272697448730e-02</leafValues></_>
        <_>
          <internalNodes>
            0 -1 85 -3.6774449050426483e-02</internalNodes>
          <leafValues>
            2.5607302784919739e-01 -1.5956620872020721e-01</leafValues></_>
        <_>
          <internalNodes>
            0 -1 88 7.3611974716186523e-02</internalNodes>
          <leafValues>
            8.8869825005531311e-02 -4.3931835889816284e-01</leafValues></_>
        <_>
          <internalNodes>
            0 -1 99 -1.5409542247653008e-03</internalNodes>
          <leafValues>
            -3.1991079449653625e-01 1.2611098587512970e-01</leafValues></_>
        <_>
          <internalNodes>
            0 -1 26 -3.9739245548844337e-03</internalNodes>
          <leafValues>
            5.3946572542190552e-01 -7.4723862111568451e-02</leafValues></_>
        <_>
          <internalNodes>
            0 -1 134 5.1551964133977890e-02</internalNodes>
          <leafValues>
            5.5358506739139557e-02 -8.0342888832092285e-01</leafValues></_>
        <_>
          <internalNodes>
            0 -1 100 -4.4085091212764382e-04</internalNodes>
          <leafValues>
            2.0929540693759918e-01 -2.2169181704521179e-01</leafValues></_>
        <_>
          <internalNodes>
            0 -1 441 4.6446463093161583e-03</internalNodes>
          <leafValues>
            -1.3909296691417694e-01 2.5669986009597778e-01</leafValues></_>
        <_>
          <internalNodes>
            0 -1 444 4.6937383012846112e-04</internalNodes>
          <leafValues>
            -2.1903729438781738e-01 1.9311363995075226e-01</leafValues></_></weakClassifiers></_>
    <!-- stage 11 -->
    <_>
      <maxWeakCount>47</maxWeakCount>
      <stageThreshold>-9.0013968944549561e-01</stageThreshold>
      <weakClassifiers>
        <_>
          <internalNodes>
            0 -1 422 -4.6959574683569372e-04</internalNodes>
          <leafValues>
            4.3583816289901733e-01 3.1292516738176346e-02</leafValues></_>
        <_>
          <internalNodes>
            0 -1 719 -1.3041367754340172e-02</internalNodes>
          <leafValues>
            3.7535533308982849e-01 -1.0565882921218872e-01</leafValues></_>
        <_>
          <internalNodes>
            0 -1 45 -3.4787757322192192e-03</internalNodes>
          <leafValues>
            5.6692469120025635e-01 -7.1839958429336548e-02</leafValues></_>
        <_>
          <internalNodes>
            0 -1 300 -8.5317373275756836e-02</internalNodes>
          <leafValues>
            -6.4448875188827515e-01 4.2847540229558945e-02</leafValues></_>
        <_>
          <internalNodes>
            0 -1 206 5.6789037771522999e-03</internalNodes>
          <leafValues>
            -2.0472598075866699e-01 2.0494678616523743e-01</leafValues></_>
        <_>
          <internalNodes>
            0 -1 626 -6.9452635943889618e-04</internalNodes>
          <leafValues>
            2.1669019758701324e-01 -2.1995905041694641e-01</leafValues></_>
        <_>
          <internalNodes>
            0 -1 214 2.7555871754884720e-02</internalNodes>
          <leafValues>
            5.8294121176004410e-02 -7.5483185052871704e-01</leafValues></_>
        <_>
          <internalNodes>
            0 -1 101 -1.8936938140541315e-03</internalNodes>
          <leafValues>
            -3.0443611741065979e-01 1.0347639769315720e-01</leafValues></_>
        <_>
          <internalNodes>
            0 -1 139 4.2278920300304890e-03</internalNodes>
          <leafValues>
            -1.2739901244640350e-01 3.0282491445541382e-01</leafValues></_>
        <_>
          <internalNodes>
            0 -1 561 1.1628815904259682e-02</internalNodes>
          <leafValues>
            -6.4260102808475494e-02 5.0638663768768311e-01</leafValues></_>
        <_>
          <internalNodes>
            0 -1 358 -2.0041114185005426e-03</internalNodes>
          <leafValues>
            2.2041079401969910e-01 -1.5819843113422394e-01</leafValues></_>
        <_>
          <internalNodes>
            0 -1 113 8.4867075085639954e-02</internalNodes>
          <leafValues>
            -6.6387131810188293e-02 4.9670940637588501e-01</leafValues></_>
        <_>
          <internalNodes>
            0 -1 109 -5.6709733325988054e-04</internalNodes>
          <leafValues>
            -2.8108471632003784e-01 1.2506890296936035e-01</leafValues></_>
        <_>
          <internalNodes>
            0 -1 409 8.2735009491443634e-03</internalNodes>
          <leafValues>
            1.0268385708332062e-01 -3.2848811149597168e-01</leafValues></_>
        <_>
          <internalNodes>
            0 -1 439 -1.9258803222328424e-03</internalNodes>
          <leafValues>
            4.4247534871101379e-01 -7.9865261912345886e-02</leafValues></_>
        <_>
          <internalNodes>
            0 -1 450 2.3697004653513432e-03</internalNodes>
          <leafValues>
            5.2210777997970581e-02 -7.3105269670486450e-01</leafValues></_>
        <_>
          <internalNodes>
            0 -1 212 1.0509610176086426e-02</internalNodes>
          <leafValues>
            -8.0916538834571838e-02 4.7152090072631836e-01</leafValues></_>
        <_>
          <internalNodes>
            0 -1 2 2.9430657159537077e-03</internalNodes>
          <leafValues>
            9.8701089620590210e-02 -3.9771732687950134e-01</leafValues></_>
        <_>
          <internalNodes>
            0 -1 198 9.8044224083423615e-02</internalNodes>
          <leafValues>
            4.0148980915546417e-02 -8.7313890457153320e-01</leafValues></_>
        <_>
          <internalNodes>
            0 -1 116 9.1886566951870918e-04</internalNodes>
          <leafValues>
            -1.8681757152080536e-01 2.2046314179897308e-01</leafValues></_>
        <_>
          <internalNodes>
            0 -1 186 6.6905044019222260e-02</internalNodes>
          <leafValues>
            6.5383136272430420e-02 -5.9385937452316284e-01</leafValues></_>
        <_>
          <internalNodes>
            0 -1 572 1.0306581854820251e-02</internalNodes>
          <leafValues>
            9.8993457853794098e-02 -3.5289651155471802e-01</leafValues></_>
        <_>
          <internalNodes>
            0 -1 354 8.6458458099514246e-04</internalNodes>
          <leafValues>
            -1.4086680114269257e-01 2.7294698357582092e-01</leafValues></_>
        <_>
          <internalNodes>
            0 -1 146 -1.7858538776636124e-03</internalNodes>
          <leafValues>
            -2.9254785180091858e-01 1.3287043571472168e-01</leafValues></_>
        <_>
          <internalNodes>
            0 -1 270 1.5807516872882843e-02</internalNodes>
          <leafValues>
            -5.8917559683322906e-02 6.0138761997222900e-01</leafValues></_>
        <_>
          <internalNodes>
            0 -1 87 -5.0241604913026094e-04</internalNodes>
          <leafValues>
            -2.0628832280635834e-01 1.8651171028614044e-01</leafValues></_>
        <_>
          <internalNodes>
            0 -1 230 4.2220752220600843e-04</internalNodes>
          <leafValues>
            1.1086447536945343e-01 -3.4204539656639099e-01</leafValues></_>
        <_>
          <internalNodes>
            0 -1 406 1.4811175642535090e-03</internalNodes>
          <leafValues>
            -8.4663592278957367e-02 4.1229045391082764e-01</leafValues></_>
        <_>
          <internalNodes>
            0 -1 456 2.8293405193835497e-03</internalNodes>
          <leafValues>
            -9.3621991574764252e-02 3.9775121212005615e-01</leafValues></_>
        <_>
          <internalNodes>
            0 -1 84 -4.8221885226666927e-03</internalNodes>
          <leafValues>
            -4.8433411121368408e-01 8.0044016242027283e-02</leafValues></_>
        <_>
          <internalNodes>
            0 -1 559 -1.9865960348397493e-03</internalNodes>
          <leafValues>
            3.0215823650360107e-01 -1.2898138165473938e-01</leafValues></_>
        <_>
          <internalNodes>
            0 -1 92 -1.8767211586236954e-02</internalNodes>
          <leafValues>
            3.0728214979171753e-01 -1.1108652502298355e-01</leafValues></_>
        <_>
          <internalNodes>
            0 -1 463 4.6955264406278729e-04</internalNodes>
          <leafValues>
            1.4469671249389648e-01 -2.5921520590782166e-01</leafValues></_>
        <_>
          <internalNodes>
            0 -1 417 -2.6840595528483391e-03</internalNodes>
          <leafValues>
            5.7241797447204590e-01 -6.1493713408708572e-02</leafValues></_>
        <_>
          <internalNodes>
            0 -1 477 -7.7987508848309517e-04</internalNodes>
          <leafValues>
            1.9576962292194366e-01 -1.8405243754386902e-01</leafValues></_>
        <_>
          <internalNodes>
            0 -1 429 2.0600358024239540e-02</internalNodes>
          <leafValues>
            7.6357908546924591e-02 -4.9575898051261902e-01</leafValues></_>
        <_>
          <internalNodes>
            0 -1 583 -1.6072617145255208e-03</internalNodes>
          <leafValues>
            1.6331419348716736e-01 -2.6025035977363586e-01</leafValues></_>
        <_>
          <internalNodes>
            0 -1 264 -5.9477817267179489e-03</internalNodes>
          <leafValues>
            -3.2442808151245117e-01 1.2404179573059082e-01</leafValues></_>
        <_>
          <internalNodes>
            0 -1 131 -3.1812596716918051e-04</internalNodes>
          <leafValues>
            2.2125101089477539e-01 -1.7560905218124390e-01</leafValues></_>
        <_>
          <internalNodes>
            0 -1 115 -1.4141593128442764e-02</internalNodes>
          <leafValues>
            4.5121446251869202e-01 -8.8125750422477722e-02</leafValues></_>
        <_>
          <internalNodes>
            0 -1 155 1.5294246375560760e-02</internalNodes>
          <leafValues>
            8.0736853182315826e-02 -6.0360723733901978e-01</leafValues></_>
        <_>
          <internalNodes>
            0 -1 597 5.1331985741853714e-03</internalNodes>
          <leafValues>
            -1.4356842637062073e-01 2.8557160496711731e-01</leafValues></_>
        <_>
          <internalNodes>
            0 -1 611 -7.9258298501372337e-04</internalNodes>
          <leafValues>
            2.1918205916881561e-01 -1.9802312552928925e-01</leafValues></_>
        <_>
          <internalNodes>
            0 -1 4 -3.6092480877414346e-04</internalNodes>
          <leafValues>
            -2.7448540925979614e-01 1.6146101057529449e-01</leafValues></_>
        <_>
          <internalNodes>
            0 -1 534 -8.6151584982872009e-03</internalNodes>
          <leafValues>
            3.6421689391136169e-01 -1.1458173394203186e-01</leafValues></_>
        <_>
          <internalNodes>
            0 -1 560 -3.7451679818332195e-03</internalNodes>
          <leafValues>
            2.8189447522163391e-01 -1.3993529975414276e-01</leafValues></_>
        <_>
          <internalNodes>
            0 -1 686 -2.5710763875395060e-03</internalNodes>
          <leafValues>
            -6.4386445283889771e-01 5.4678931832313538e-02</leafValues></_></weakClassifiers></_>
    <!-- stage 12 -->
    <_>
      <maxWeakCount>51</maxWeakCount>
      <stageThreshold>-8.9871686697006226e-01</stageThreshold>
      <weakClassifiers>
        <_>
          <internalNodes>
            0 -1 361 -8.8171958923339844e-03</internalNodes>
          <leafValues>
            -2.0895522832870483e-01 3.4234234690666199e-01</leafValues></_>
        <_>
          <internalNodes>
            0 -1 91 -1.0095773637294769e-01</internalNodes>
          <leafValues>
            2.6100471615791321e-01 -1.4200088381767273e-01</leafValues></_>
        <_>
          <internalNodes>
            0 -1 484 1.1243643239140511e-02</internalNodes>
          <leafValues>
            -8.7268017232418060e-02 5.5509805679321289e-01</leafValues></_>
        <_>
          <internalNodes>
            0 -1 337 3.0307678971439600e-03</internalNodes>
          <leafValues>
            5.6426256895065308e-02 -7.8445303440093994e-01</leafValues></_>
        <_>
          <internalNodes>
            0 -1 552 -8.0970267299562693e-04</internalNodes>
          <leafValues>
            1.6320683062076569e-01 -2.1918034553527832e-01</leafValues></_>
        <_>
          <internalNodes>
            0 -1 493 7.7705848962068558e-03</internalNodes>
          <leafValues>
            -7.3760360479354858e-02 8.0016875267028809e-01</leafValues></_>
        <_>
          <internalNodes>
            0 -1 320 4.8024341464042664e-02</internalNodes>
          <leafValues>
            5.6874252855777740e-02 -7.2456401586532593e-01</leafValues></_>
        <_>
          <internalNodes>
            0 -1 217 3.8721607998013496e-03</internalNodes>
          <leafValues>
            -9.6609286963939667e-02 4.0557539463043213e-01</leafValues></_>
        <_>
          <internalNodes>
            0 -1 604 6.1658946797251701e-03</internalNodes>
          <leafValues>
            8.0457560718059540e-02 -4.1230997443199158e-01</leafValues></_>
        <_>
          <internalNodes>
            0 -1 579 -7.9980347072705626e-04</internalNodes>
          <leafValues>
            1.8872603774070740e-01 -2.0381987094879150e-01</leafValues></_>
        <_>
          <internalNodes>
            0 -1 466 2.7527040801942348e-03</internalNodes>
          <leafValues>
            -1.4076590538024902e-01 2.8742274641990662e-01</leafValues></_>
        <_>
          <internalNodes>
            0 -1 75 7.7378913760185242e-02</internalNodes>
          <leafValues>
            -5.3887844085693359e-02 7.3421537876129150e-01</leafValues></_>
        <_>
          <internalNodes>
            0 -1 106 -6.7306933924555779e-03</internalNodes>
          <leafValues>
            -4.3790119886398315e-01 1.0572039335966110e-01</leafValues></_>
        <_>
          <internalNodes>
            0 -1 397 4.0497834561392665e-04</internalNodes>
          <leafValues>
            -2.3081466555595398e-01 1.8191851675510406e-01</leafValues></_>
        <_>
          <internalNodes>
            0 -1 591 -2.7525101904757321e-04</internalNodes>
          <leafValues>
            2.1214874088764191e-01 -1.9263471662998199e-01</leafValues></_>
        <_>
          <internalNodes>
            0 -1 244 -2.6295210700482130e-03</internalNodes>
          <leafValues>
            2.2030450403690338e-01 -1.6745796799659729e-01</leafValues></_>
        <_>
          <internalNodes>
            0 -1 574 -5.9769768267869949e-02</internalNodes>
          <leafValues>
            -7.1870511770248413e-01 6.1441496014595032e-02</leafValues></_>
        <_>
          <internalNodes>
            0 -1 294 5.7459187507629395e-01</internalNodes>
          <leafValues>
            -6.7625194787979126e-02 7.1707403659820557e-01</leafValues></_>
        <_>
          <internalNodes>
            0 -1 200 -5.3744796663522720e-02</internalNodes>
          <leafValues>
            -5.1221895217895508e-01 7.5007215142250061e-02</leafValues></_>
        <_>
          <internalNodes>
            0 -1 630 -8.9761905837804079e-04</internalNodes>
          <leafValues>
            -2.5657081604003906e-01 1.2655688822269440e-01</leafValues></_>
        <_>
          <internalNodes>
            0 -1 242 -7.8978668898344040e-03</internalNodes>
          <leafValues>
            4.4968175888061523e-01 -7.8810341656208038e-02</leafValues></_>
        <_>
          <internalNodes>
            0 -1 25 -2.2663057316094637e-03</internalNodes>
          <leafValues>
            4.5809432864189148e-01 -7.3361471295356750e-02</leafValues></_>
        <_>
          <internalNodes>
            0 -1 555 -2.2855843417346478e-03</internalNodes>
          <leafValues>
            -5.8824044466018677e-01 6.3634008169174194e-02</leafValues></_>
        <_>
          <internalNodes>
            0 -1 495 5.0248210318386555e-03</internalNodes>
          <leafValues>
            -9.8408386111259460e-02 3.7369716167449951e-01</leafValues></_>
        <_>
          <internalNodes>
            0 -1 126 -7.8994169831275940e-02</internalNodes>
          <leafValues>
            2.4491699039936066e-01 -1.7683683335781097e-01</leafValues></_>
        <_>
          <internalNodes>
            0 -1 336 -4.5349486172199249e-03</internalNodes>
          <leafValues>
            -8.3166986703872681e-01 4.7755934298038483e-02</leafValues></_>
        <_>
          <internalNodes>
            0 -1 431 2.5925533846020699e-02</internalNodes>
          <leafValues>
            -8.4536090493202209e-02 4.5520678162574768e-01</leafValues></_>
        <_>
          <internalNodes>
            0 -1 557 1.9780322909355164e-02</internalNodes>
          <leafValues>
            -1.0501547157764435e-01 3.1213051080703735e-01</leafValues></_>
        <_>
          <internalNodes>
            0 -1 510 4.5405775308609009e-03</internalNodes>
          <leafValues>
            4.9883078783750534e-02 -6.9740742444992065e-01</leafValues></_>
        <_>
          <internalNodes>
            0 -1 530 -7.5094830244779587e-03</internalNodes>
          <leafValues>
            -2.8809759020805359e-01 1.1714494228363037e-01</leafValues></_>
        <_>
          <internalNodes>
            0 -1 519 4.2098559439182281e-02</internalNodes>
          <leafValues>
            -1.0047763586044312e-01 3.7949064373970032e-01</leafValues></_>
        <_>
          <internalNodes>
            0 -1 697 1.1391415027901530e-03</internalNodes>
          <leafValues>
            -1.9510464370250702e-01 2.0200061798095703e-01</leafValues></_>
        <_>
          <internalNodes>
            0 -1 13 9.0588517487049103e-03</internalNodes>
          <leafValues>
            -9.9594913423061371e-02 3.8090595602989197e-01</leafValues></_>
        <_>
          <internalNodes>
            0 -1 94 2.2214546333998442e-03</internalNodes>
          <leafValues>
            1.1542141437530518e-01 -3.5800877213478088e-01</leafValues></_>
        <_>
          <internalNodes>
            0 -1 443 -3.6695931106805801e-02</internalNodes>
          <leafValues>
            6.7390179634094238e-01 -5.4618049412965775e-02</leafValues></_>
        <_>
          <internalNodes>
            0 -1 414 4.3193913996219635e-02</internalNodes>
          <leafValues>
            6.6805541515350342e-02 -6.2596994638442993e-01</leafValues></_>
        <_>
          <internalNodes>
            0 -1 245 -1.0334787890315056e-02</internalNodes>
          <leafValues>
            3.3362445235252380e-01 -1.2593638896942139e-01</leafValues></_>
        <_>
          <internalNodes>
            0 -1 189 3.9659170433878899e-03</internalNodes>
          <leafValues>
            -1.2779438495635986e-01 2.7864772081375122e-01</leafValues></_>
        <_>
          <internalNodes>
            0 -1 117 -9.3390420079231262e-03</internalNodes>
          <leafValues>
            3.9149346947669983e-01 -9.3605421483516693e-02</leafValues></_>
        <_>
          <internalNodes>
            0 -1 226 5.4068228928372264e-04</internalNodes>
          <leafValues>
            -1.4782489836215973e-01 2.3927585780620575e-01</leafValues></_>
        <_>
          <internalNodes>
            0 -1 509 -2.0183150190860033e-03</internalNodes>
          <leafValues>
            -7.1225607395172119e-01 4.9290165305137634e-02</leafValues></_>
        <_>
          <internalNodes>
            0 -1 104 5.2708839066326618e-03</internalNodes>
          <leafValues>
            -1.3318994641304016e-01 2.7779427170753479e-01</leafValues></_>
        <_>
          <internalNodes>
            0 -1 182 -1.3697208836674690e-02</internalNodes>
          <leafValues>
            2.8303897380828857e-01 -1.4348535239696503e-01</leafValues></_>
        <_>
          <internalNodes>
            0 -1 39 -1.6754736006259918e-01</internalNodes>
          <leafValues>
            4.0107390284538269e-01 -1.0928747802972794e-01</leafValues></_>
        <_>
          <internalNodes>
            0 -1 287 1.5846065944060683e-03</internalNodes>
          <leafValues>
            -1.7500609159469604e-01 2.1680670976638794e-01</leafValues></_>
        <_>
          <internalNodes>
            0 -1 145 -6.8329653004184365e-05</internalNodes>
          <leafValues>
            -2.0543068647384644e-01 1.8817599117755890e-01</leafValues></_>
        <_>
          <internalNodes>
            0 -1 49 -1.0807720944285393e-02</internalNodes>
          <leafValues>
            4.1353443264961243e-01 -8.9676558971405029e-02</leafValues></_>
        <_>
          <internalNodes>
            0 -1 52 -2.0552412606775761e-03</internalNodes>
          <leafValues>
            -3.6531573534011841e-01 1.1654820293188095e-01</leafValues></_>
        <_>
          <internalNodes>
            0 -1 15 2.7192151173949242e-03</internalNodes>
          <leafValues>
            9.3267776072025299e-02 -4.0986114740371704e-01</leafValues></_>
        <_>
          <internalNodes>
            0 -1 15 -3.3914595842361450e-03</internalNodes>
          <leafValues>
            -3.3621367812156677e-01 1.1815563589334488e-01</leafValues></_>
        <_>
          <internalNodes>
            0 -1 36 -8.0071147531270981e-03</internalNodes>
          <leafValues>
            5.0251144170761108e-01 -8.4536001086235046e-02</leafValues></_></weakClassifiers></_>
    <!-- stage 13 -->
    <_>
      <maxWeakCount>51</maxWeakCount>
      <stageThreshold>-8.2254993915557861e-01</stageThreshold>
      <weakClassifiers>
        <_>
          <internalNodes>
            0 -1 413 -5.2559254691004753e-03</internalNodes>
          <leafValues>
            5.8604651689529419e-01 1.2649573385715485e-01</leafValues></_>
        <_>
          <internalNodes>
            0 -1 575 4.4315218925476074e-02</internalNodes>
          <leafValues>
            -5.4484851658344269e-02 5.2415841817855835e-01</leafValues></_>
        <_>
          <internalNodes>
            0 -1 512 -4.3290559551678598e-04</internalNodes>
          <leafValues>
            1.4075376093387604e-01 -2.5214993953704834e-01</leafValues></_>
        <_>
          <internalNodes>
            0 -1 532 -5.7092253118753433e-02</internalNodes>
          <leafValues>
            -8.1796014308929443e-01 2.9465153813362122e-02</leafValues></_>
        <_>
          <internalNodes>
            0 -1 10 -4.5609351946040988e-04</internalNodes>
          <leafValues>
            -3.0850461125373840e-01 1.2370301038026810e-01</leafValues></_>
        <_>
          <internalNodes>
            0 -1 620 -4.1707744821906090e-03</internalNodes>
          <leafValues>
            -3.3532422780990601e-01 1.1746143549680710e-01</leafValues></_>
        <_>
          <internalNodes>
            0 -1 502 8.8931026402860880e-04</internalNodes>
          <leafValues>
            -1.3000831007957458e-01 2.5437366962432861e-01</leafValues></_>
        <_>
          <internalNodes>
            0 -1 675 2.0550418645143509e-02</internalNodes>
          <leafValues>
            -1.7382547259330750e-01 2.4175779521465302e-01</leafValues></_>
        <_>
          <internalNodes>
            0 -1 140 3.3856287598609924e-02</internalNodes>
          <leafValues>
            -1.0053998976945877e-01 3.3031290769577026e-01</leafValues></_>
        <_>
          <internalNodes>
            0 -1 703 5.0895452499389648e-02</internalNodes>
          <leafValues>
            -1.0641136765480042e-01 3.4880587458610535e-01</leafValues></_>
        <_>
          <internalNodes>
            0 -1 684 -6.5717562101781368e-03</internalNodes>
          <leafValues>
            -5.5704003572463989e-01 6.5439455211162567e-02</leafValues></_>
        <_>
          <internalNodes>
            0 -1 133 4.6087889932096004e-03</internalNodes>
          <leafValues>
            5.7626262307167053e-02 -6.4968526363372803e-01</leafValues></_>
        <_>
          <internalNodes>
            0 -1 357 9.2844273895025253e-03</internalNodes>
          <leafValues>
            -8.1597037613391876e-02 4.6437093615531921e-01</leafValues></_>
        <_>
          <internalNodes>
            0 -1 432 -2.2575277835130692e-02</internalNodes>
          <leafValues>
            5.5411899089813232e-01 -5.1398083567619324e-02</leafValues></_>
        <_>
          <internalNodes>
            0 -1 568 6.9694162812083960e-04</internalNodes>
          <leafValues>
            1.2631763517856598e-01 -2.7386680245399475e-01</leafValues></_>
        <_>
          <internalNodes>
            0 -1 69 2.8244266286492348e-03</internalNodes>
          <leafValues>
            7.7954925596714020e-02 -4.8740735650062561e-01</leafValues></_>
        <_>
          <internalNodes>
            0 -1 698 3.8383592618629336e-04</internalNodes>
          <leafValues>
            -1.7097824811935425e-01 2.2238591313362122e-01</leafValues></_>
        <_>
          <internalNodes>
            0 -1 317 -1.0137047618627548e-02</internalNodes>
          <leafValues>
            -5.1098120212554932e-01 6.3302226364612579e-02</leafValues></_>
        <_>
          <internalNodes>
            0 -1 687 5.1874937489628792e-03</internalNodes>
          <leafValues>
            -1.5320950746536255e-01 2.3627601563930511e-01</leafValues></_>
        <_>
          <internalNodes>
            0 -1 525 -3.1105797737836838e-02</internalNodes>
          <leafValues>
            -5.7275766134262085e-01 5.8641511946916580e-02</leafValues></_>
        <_>
          <internalNodes>
            0 -1 22 -5.6727244518697262e-03</internalNodes>
          <leafValues>
            4.6977567672729492e-01 -7.5510591268539429e-02</leafValues></_>
        <_>
          <internalNodes>
            0 -1 606 5.2001141011714935e-02</internalNodes>
          <leafValues>
            4.1052620857954025e-02 -8.2771313190460205e-01</leafValues></_>
        <_>
          <internalNodes>
            0 -1 503 3.9851167239248753e-03</internalNodes>
          <leafValues>
            -7.6420702040195465e-02 4.5664903521537781e-01</leafValues></_>
        <_>
          <internalNodes>
            0 -1 199 -4.6336450614035130e-03</internalNodes>
          <leafValues>
            -3.1050959229469299e-01 1.2815946340560913e-01</leafValues></_>
        <_>
          <internalNodes>
            0 -1 389 1.8041655421257019e-03</internalNodes>
          <leafValues>
            -2.0076775550842285e-01 1.6807268559932709e-01</leafValues></_>
        <_>
          <internalNodes>
            0 -1 504 -4.7076130285859108e-03</internalNodes>
          <leafValues>
            4.7235131263732910e-01 -7.8242391347885132e-02</leafValues></_>
        <_>
          <internalNodes>
            0 -1 314 5.0162855768576264e-04</internalNodes>
          <leafValues>
            1.9881705939769745e-01 -2.1173033118247986e-01</leafValues></_>
        <_>
          <internalNodes>
            0 -1 274 -2.7149490779265761e-04</internalNodes>
          <leafValues>
            2.6752206683158875e-01 -1.5859203040599823e-01</leafValues></_>
        <_>
          <internalNodes>
            0 -1 395 -2.2307629697024822e-03</internalNodes>
          <leafValues>
            -8.6520785093307495e-01 4.0550537407398224e-02</leafValues></_>
        <_>
          <internalNodes>
            0 -1 683 1.3510071672499180e-02</internalNodes>
          <leafValues>
            5.3866673260927200e-02 -5.4913258552551270e-01</leafValues></_>
        <_>
          <internalNodes>
            0 -1 23 -1.1508452706038952e-02</internalNodes>
          <leafValues>
            5.4566550254821777e-01 -6.2753915786743164e-02</leafValues></_>
        <_>
          <internalNodes>
            0 -1 233 9.0631730854511261e-03</internalNodes>
          <leafValues>
            7.0074439048767090e-02 -5.3524953126907349e-01</leafValues></_>
        <_>
          <internalNodes>
            0 -1 209 -3.8755643181502819e-03</internalNodes>
          <leafValues>
            2.1497619152069092e-01 -1.8131458759307861e-01</leafValues></_>
        <_>
          <internalNodes>
            0 -1 71 -6.6692857071757317e-03</internalNodes>
          <leafValues>
            2.4911737442016602e-01 -1.6222779452800751e-01</leafValues></_>
        <_>
          <internalNodes>
            0 -1 159 -2.6595466770231724e-03</internalNodes>
          <leafValues>
            -3.7400302290916443e-01 9.7747743129730225e-02</leafValues></_>
        <_>
          <internalNodes>
            0 -1 493 5.6453058496117592e-03</internalNodes>
          <leafValues>
            -6.2797382473945618e-02 5.8250200748443604e-01</leafValues></_>
        <_>
          <internalNodes>
            0 -1 399 -5.2467477507889271e-04</internalNodes>
          <leafValues>
            1.6481520235538483e-01 -2.1013726294040680e-01</leafValues></_>
        <_>
          <internalNodes>
            0 -1 157 -1.6483198851346970e-03</internalNodes>
          <leafValues>
            2.1067427098751068e-01 -1.7175373435020447e-01</leafValues></_>
        <_>
          <internalNodes>
            0 -1 30 1.0442361235618591e-01</internalNodes>
          <leafValues>
            5.0320286303758621e-02 -7.5404930114746094e-01</leafValues></_>
        <_>
          <internalNodes>
            0 -1 376 -1.0375490039587021e-01</internalNodes>
          <leafValues>
            4.8544064164161682e-01 -8.9743524789810181e-02</leafValues></_>
        <_>
          <internalNodes>
            0 -1 593 -6.2615389470010996e-04</internalNodes>
          <leafValues>
            2.3698154091835022e-01 -1.9180986285209656e-01</leafValues></_>
        <_>
          <internalNodes>
            0 -1 60 2.4965261109173298e-03</internalNodes>
          <leafValues>
            1.1026738584041595e-01 -3.4320876002311707e-01</leafValues></_>
        <_>
          <internalNodes>
            0 -1 524 -6.2486384995281696e-03</internalNodes>
          <leafValues>
            3.0906417965888977e-01 -1.2878642976284027e-01</leafValues></_>
        <_>
          <internalNodes>
            0 -1 581 3.6450438201427460e-02</internalNodes>
          <leafValues>
            5.6732211261987686e-02 -6.7400205135345459e-01</leafValues></_>
        <_>
          <internalNodes>
            0 -1 76 -1.3825285434722900e-01</internalNodes>
          <leafValues>
            -9.0218877792358398e-01 2.6850616559386253e-02</leafValues></_>
        <_>
          <internalNodes>
            0 -1 83 3.5921144299209118e-03</internalNodes>
          <leafValues>
            -1.5083064138889313e-01 2.3716968297958374e-01</leafValues></_>
        <_>
          <internalNodes>
            0 -1 598 6.1243347590789199e-04</internalNodes>
          <leafValues>
            -1.5744329988956451e-01 2.0994292199611664e-01</leafValues></_>
        <_>
          <internalNodes>
            0 -1 402 3.3617794979363680e-03</internalNodes>
          <leafValues>
            -1.4794990420341492e-01 2.4978728592395782e-01</leafValues></_>
        <_>
          <internalNodes>
            0 -1 347 -9.5482692122459412e-03</internalNodes>
          <leafValues>
            3.6037313938140869e-01 -1.1032296717166901e-01</leafValues></_>
        <_>
          <internalNodes>
            0 -1 521 1.8021536525338888e-03</internalNodes>
          <leafValues>
            -1.7042516171932220e-01 2.1063764393329620e-01</leafValues></_>
        <_>
          <internalNodes>
            0 -1 112 3.8785174489021301e-02</internalNodes>
          <leafValues>
            -7.7108219265937805e-02 5.1851844787597656e-01</leafValues></_></weakClassifiers></_>
    <!-- stage 14 -->
    <_>
      <maxWeakCount>41</maxWeakCount>
      <stageThreshold>-6.1969226598739624e-01</stageThreshold>
      <weakClassifiers>
        <_>
          <internalNodes>
            0 -1 201 -3.1444604974240065e-04</internalNodes>
          <leafValues>
            4.3638524413108826e-01 4.3478261679410934e-02</leafValues></_>
        <_>
          <internalNodes>
            0 -1 436 5.3580584935843945e-03</internalNodes>
          <leafValues>
            -9.5610313117504120e-02 3.6467507481575012e-01</leafValues></_>
        <_>
          <internalNodes>
            0 -1 334 -4.9479873850941658e-03</internalNodes>
          <leafValues>
            -4.0148505568504333e-01 9.4746746122837067e-02</leafValues></_>
        <_>
          <internalNodes>
            0 -1 269 -1.2814706191420555e-02</internalNodes>
          <leafValues>
            1.8259209394454956e-01 -2.5505882501602173e-01</leafValues></_>
        <_>
          <internalNodes>
            0 -1 491 -1.0059464257210493e-03</internalNodes>
          <leafValues>
            2.7725091576576233e-01 -1.1826854199171066e-01</leafValues></_>
        <_>
          <internalNodes>
            0 -1 114 1.5781819820404053e-02</internalNodes>
          <leafValues>
            -1.2086492776870728e-01 3.6915984749794006e-01</leafValues></_>
        <_>
          <internalNodes>
            0 -1 239 3.8967125583440065e-03</internalNodes>
          <leafValues>
            -6.7702449858188629e-02 5.9611558914184570e-01</leafValues></_>
        <_>
          <internalNodes>
